{"learner":{"attributes":{},"feature_names":["building_id","temp","rain","wind","humid","sunshine","irradiance","total_area","cooling_area","pv_capacity","ess_capacity","pcs_capacity","hour","dayofweek","is_weekend","dayofyear","month","hour_of_week","hour_sin","hour_cos","dow_sin","dow_cos","lag_168","roll_mean_168","temp_lag168","temp_diff168","rain_lag168","rain_diff168","wind_lag168","wind_diff168","humid_lag168","humid_diff168","dew_point","heat_index","sunshine_lag168","sunshine_roll_mean_168","irradiance_lag168","irradiance_roll_mean_168","cdd","hdd","pvx_irradiance_lag168","pvx_irradiance_roll_mean_168","pvx_sunshine_lag168","pvx_sunshine_roll_mean_168"],"feature_types":["int","float","float","float","float","float","float","float","float","float","float","float","int","int","int","int","int","int","float","float","float","float","float","float","float","float","float","float","float","float","float","float","float","float","float","float","float","float","float","float","float","float","float","float"],"gradient_booster":{"model":{"gbtree_model_param":{"num_parallel_tree":"1","num_trees":"3"},"iteration_indptr":[0,1,2,3],"tree_info":[0,0,0],"trees":[{"base_weights":[-1.803559E-4,-2.0695151E-1,2.6924497E-1,-3.1522354E-1,-8.841351E-2,-4.060081E-1,3.3073735E-1,-4.304912E-1,-6.744451E-2,-2.3669374E-1,7.06962E-2,-9.029807E-1,-1.7707212E-1,2.4194205E-1,5.393221E-1,-5.3608596E-1,-3.3038938E-1,-2.1828601E-1,1.1412447E-1,-1.264859E-1,-4.126551E-1,-2.9375386E-1,1.4312051E-1,-9.7684604E-1,1.4035088E-1,-2.550397E-1,3.9954853E-1,1.2186546E-1,3.705521E-1,2.8019226E-1,6.4038444E-1,-6.730104E-1,-4.8404655E-1,-4.3448427E-1,-1.8511656E-1,-2.8952178E-1,2.0215634E-1,1.7929563E-2,3.7994102E-1,-1.965469E-1,2.2160408E-1,-2.9335037E-1,-5.2493376E-1,-8.867521E-1,-1.933502E-1,6.448615E-2,2.9662555E-1,-9.830508E-1,4.1666668E-2,-3.469388E-1,5E-1,-3.18596E-1,3.4935898E-1,4.7244094E-2,5.3943217E-1,5.448413E-3,2.5577E-1,3.8936916E-1,-1.2080537E-1,1.362921E-1,5.316456E-1,6.8133324E-1,3.2120797E-1,-2.2781065E-1,-7.133998E-1,-7.7788746E-1,-4.5313147E-1,-6.244563E-1,-3.780138E-1,-4.5083332E-1,-1.24668434E-1,-4.9593845E-1,-1.7526017E-1,3.6124402E-1,-2.769784E-1,-9.1588783E-1,3.974667E-2,-2.734375E-2,4.5208332E-1,-9.268293E-1,-1.704842E-1,-5.021645E-2,5.343968E-1,-4.9264136E-1,-1.9503817E-1,-8.040886E-1,-4.7882187E-1,-9.616253E-1,4.2307693E-1,-3.1116503E-1,1.4971751E-1,-8.6851954E-2,1.4513601E-1,1.6260801E-1,4.115268E-1,-2.5E-1,-9.879899E-1,-6.785714E-1,9.090909E-2,8.717949E-1,-3.5714287E-2,-3.4843695E-1,4.1025642E-1,5.529954E-1,-1.14583336E-1,-4.5833334E-2,1.4655173E-1,-4.375E-1,5.89404E-1,6.191671E-2,-3.4646654E-1,-1.904762E-1,2.9754135E-1,1.633574E-1,4.1843313E-1,-3.2016632E-1,2.4150944E-1,-5.421332E-2,3.5449022E-1,3.1086656E-1,6.7827684E-1,5.8637524E-1,7.4871796E-1,4.3368238E-1,-9.294872E-2,2.2727273E-1,-4.4541484E-1,-9.5819396E-1,-6.661311E-1,-8.7120116E-1,-5.758514E-1,-4.9137932E-1,-2.292406E-1,-2.112676E-1,-6.898096E-1,-2.1385843E-1,-4.4428772E-1,-8.125E-1,-3.6004162E-1,-7.8333336E-1,-1.0139243E-1,-7.3822975E-1,-4.2454395E-1,-8.503401E-1,-1.5090641E-1,4.6326837E-1,-4.117647E-2,6.2857145E-1,-4.057377E-1,-9.708738E-1,4E-1,-3.315233E-2,2.7567068E-1,-3.1060606E-1,2.72E-1,5.3517365E-1,1.572327E-1,-4.923313E-2,-4.7727272E-1,-6.939759E-1,-1.4859559E-1,-1.5706806E-1,4.5771143E-1,2.932961E-1,6.671827E-1,-6.6318536E-1,-4.20242E-1,-5.159011E-1,-1.5611634E-1,-8.189655E-1,3.75E-1,-4.4427195E-1,-8E-1,-9.794521E-1,5E-1,8.5E-1,-4.2857144E-2,-2.3139462E-1,-5.865801E-1,1.5873017E-2,4.7804877E-1,-2.0386904E-1,4.9797338E-2,1.9955324E-1,-3.212121E-2,1.1906816E-1,6.0262007E-1,2.5269645E-1,5.3473055E-1,4.0000003E-2,-4.375E-2,-9.9420476E-1,-6.333333E-1,2.5E-2,-7.407407E-1,5.833333E-1,-4.5454547E-1,-2.5E-2,9.2105263E-1,6.1538464E-1,-5.625E-1,2.1186441E-1,-3.7252748E-1,1.2068965E-1,6.8333334E-1,-2.3529412E-1,6.169154E-1,-3.125E-1,8.235294E-1,-4.6875E-1,3.764706E-1,-4.5833334E-2,4.0000003E-2,7.4585634E-1,3.52459E-1,-2.8230617E-2,1.5376823E-1,-4.9396473E-1,-4.206501E-2,3.0120483E-1,-3.0747128E-1,4.8418278E-1,2.3608501E-1,5.445344E-1,5.3975623E-2,3.613032E-1,5.497222E-1,-4.2239186E-1,1.3483146E-1,5.032258E-1,-1.2612613E-1,-6.7391306E-1,6.4102566E-4,7.0264316E-1,2.003891E-1,8.645533E-2,5.144357E-1,7.2390246E-1,-2.9850746E-2,5.10989E-1,7.300803E-1,5.518591E-1,7.844536E-1,-5.531915E-1,4.7545454E-1,4.2727274E-1,-3.7438422E-1,-4.6875E-2,2.1052632E-2,-0E0,-3.0538922E-2,1.25E-2,-4.8235293E-2,-3.823996E-2,-2.5634727E-2,3.3333335E-2,-4.3831643E-2,-3.4763947E-2,-1.3186814E-2,-2.1786243E-2,-3.245573E-2,1.7560074E-3,-1.9677792E-2,-1.4658635E-2,1.8055556E-2,-4.509804E-2,-3.181818E-2,3.8333334E-2,-1.1431462E-2,-3.7320577E-2,-2.0025363E-2,-2.5E-2,-4.730539E-2,-2.4488306E-2,-1.9784174E-3,-4.640523E-2,1.7857144E-3,-9.032059E-3,1.8588363E-3,-3.091216E-2,-4.427966E-2,-2.9136164E-2,-1.6415263E-2,-4.6014495E-2,1.0000001E-2,-1.8046075E-2,-3.3150122E-3,-1.1538462E-2,2.6055196E-2,-3.9705884E-2,7.29927E-3,-3.75E-2,3.90625E-2,-2.593458E-2,1.9354839E-2,-4.95E-2,-1.25E-2,-2.5E-2,3.75E-2,-3.6252353E-3,1.8312102E-2,-2.2777779E-2,1.7086694E-2,-2.0325204E-2,4.4999998E-2,2.4305556E-2,-9.2592597E-4,2.7869606E-2,-8.571429E-3,-1.5873017E-3,2.1538462E-2,3.75E-2,-2.9268293E-2,2.5E-2,-3.7311558E-2,-1.8366667E-2,-5.4837563E-3,-1.5619047E-2,1.62413E-3,-2.0454546E-2,2.8055554E-2,-2.5E-2,1.8769233E-2,3.831301E-2,1.7419355E-2,-2.5284091E-2,-3.966346E-2,-4.040404E-3,-2.3057953E-2,-4.3119267E-2,-1.4857143E-2,-2.2742476E-2,-5.6127454E-3,-4.292453E-2,-1.9607844E-2,4.1666668E-2,-3.3333335E-2,-3.2986111E-3,-2.4062714E-2,-1.2121213E-2,-4.28115E-2,-4.0000003E-2,-4.9873095E-2,4.0000003E-2,-2.5E-2,4.7368422E-2,-2.5E-2,-1.5517241E-2,2.4079322E-3,-3.091518E-2,2.0000001E-2,6.2025315E-3,-1.8636364E-2,4.375E-3,3.6111113E-2,-1.3535415E-2,5.698006E-3,-2.236136E-3,1.1147541E-2,2.7777778E-3,1.4615856E-2,-2.0306513E-2,1.9064749E-3,-9.059234E-3,8.070867E-3,1.7857144E-2,3.901515E-2,1.18110245E-2,4.8275862E-2,2.3661753E-2,3.7041884E-2,-4.97739E-2,-2.5E-2,4.0000003E-2,-4.423077E-2,-4.0384617E-2,2.5E-2,-2.5E-2,3.636364E-2,1.0000001E-2,-4.2857144E-2,4.8529413E-2,2.0000001E-2,-1.25E-2,4.4999998E-2,3.3333335E-2,-3.9285716E-2,2.78481E-2,-2.375E-2,-1.1986302E-3,-2.0705206E-2,-1.3513513E-2,3.8636364E-2,3.6842104E-2,-1.25E-2,-2.5E-2,3.75E-2,-4.0000003E-2,3.248731E-2,1.4285715E-2,-2.5833333E-2,-2.5E-2,4.6875E-2,-3.6000002E-2,1.875E-2,2.6760563E-2,-2.0000001E-2,3.8764045E-2,-3.75E-2,-3.9473684E-3,2.7058825E-2,-1.1910775E-2,1.8345043E-3,2.0775862E-2,5.9444574E-3,-1.8683512E-2,-3.8496934E-2,-1.0455764E-2,1.8543048E-2,1.0000001E-2,4.074074E-2,-1.7362146E-2,3.6538463E-2,-3.214286E-2,2.5257273E-2,2.7681661E-3,1.482446E-2,4.1353386E-2,2.1961326E-2,1.745283E-2,-6.401138E-4,2.0574307E-2,6.066442E-3,2.1419853E-2,3.287473E-2,-1.0046729E-2,-3.4166668E-2,-3.2E-2,2.1538462E-2,1.2777778E-2,4.1666668E-2,-2.767857E-2,1.5178571E-2,-6.25E-3,-3.9130434E-2,-7.2929547E-3,7.912234E-3,4.5414202E-2,5.1282053E-3,1.627907E-2,-2.6392962E-3,-1.0197368E-2,1.5561225E-2,3.657895E-2,1.484375E-2,-3.75E-2,3.7031557E-2,-1.7E-2,4.1666668E-2,3.1111112E-2,1.35204075E-2,4.6264745E-2,2.7771294E-2,1.8633541E-3,3.236659E-2,4.4315845E-2,3.6511183E-2,4.0000003E-2,-3.488372E-2,-2.6785715E-2,2.5069898E-2,2.7722774E-2,-4.4999998E-2,-2.8455285E-2,-3.7037039E-3],"categories":[],"categories_nodes":[],"categories_segments":[],"categories_sizes":[],"default_left":[0,0,0,0,0,0,0,0,0,0,0,0,0,0,0,0,0,1,1,0,0,0,0,1,0,0,0,0,0,0,0,0,0,0,0,0,0,0,0,0,0,0,0,0,0,0,0,0,0,0,0,0,0,0,0,0,0,0,0,0,0,0,0,0,0,0,0,0,0,0,0,0,0,0,0,0,0,0,0,1,0,0,0,0,0,1,0,1,1,0,0,0,0,0,0,0,1,0,0,0,0,0,0,0,0,0,0,0,0,0,0,0,0,0,0,0,0,0,0,0,0,1,0,0,0,0,0,0,0,0,0,0,0,0,0,0,0,0,0,0,1,0,0,0,0,0,0,0,0,1,0,0,0,0,0,0,0,0,0,0,0,0,0,0,0,0,0,0,0,0,0,0,0,0,0,0,0,0,0,0,0,0,0,0,0,0,0,1,0,0,0,1,0,0,0,0,0,0,0,0,0,1,0,0,0,0,0,0,0,0,0,0,0,0,0,0,0,1,1,0,1,0,0,0,0,1,0,0,0,0,0,0,0,0,0,0,0,0,0,0,0,0,0,0,0,1,0,0,0,0,0,0,0,0,0,0,0,0,0,0,0,0,0,0,0,0,0,0,0,0,0,0,0,0,0,0,0,0,0,0,0,0,0,0,0,0,0,0,0,0,0,0,0,0,0,0,0,0,0,0,0,0,0,0,0,0,0,0,0,0,0,0,0,0,0,0,0,0,0,0,0,0,0,0,0,0,0,0,0,0,0,0,0,0,0,0,0,0,0,0,0,0,0,0,0,0,0,0,0,0,0,0,0,0,0,0,0,0,0,0,0,0,0,0,0,0,0,0,0,0,0,0,0,0,0,0,0,0,0,0,0,0,0,0,0,0,0,0,0,0,0,0,0,0,0,0,0,0,0,0,0,0,0,0,0,0,0,0,0,0,0,0,0,0,0,0,0,0,0,0,0,0,0,0,0,0,0,0,0,0,0,0,0,0,0,0,0,0,0,0,0,0,0,0,0,0,0,0,0,0,0,0,0,0,0,0,0,0,0,0,0,0,0,0,0,0,0,0,0,0,0,0,0,0,0],"id":0,"left_children":[1,3,5,7,9,11,13,15,17,19,21,23,25,27,29,31,33,35,37,39,41,43,45,47,49,51,53,55,57,59,61,63,65,67,69,71,73,75,77,79,81,83,85,87,89,91,93,95,-1,97,99,101,103,105,107,109,111,113,115,117,119,121,123,125,127,129,131,133,135,137,139,141,143,145,147,149,151,153,155,157,159,161,163,165,167,169,171,173,175,177,179,181,183,185,187,189,191,193,195,197,199,201,203,205,207,-1,209,211,213,215,217,219,221,223,225,227,229,231,233,235,237,239,241,243,245,247,249,251,253,255,257,259,261,263,265,267,269,271,273,275,277,279,281,283,285,287,289,291,293,295,297,299,301,303,305,307,309,-1,311,313,315,317,319,321,323,325,327,329,331,333,335,337,339,341,343,345,-1,347,349,351,353,355,357,359,361,363,365,367,369,-1,-1,371,373,-1,375,377,379,-1,381,383,385,387,389,391,393,395,397,399,401,403,405,-1,-1,407,409,411,413,415,417,419,421,423,425,427,429,431,433,435,437,439,441,443,445,447,449,451,453,455,457,459,461,463,465,467,469,471,473,-1,-1,-1,-1,-1,-1,-1,-1,-1,-1,-1,-1,-1,-1,-1,-1,-1,-1,-1,-1,-1,-1,-1,-1,-1,-1,-1,-1,-1,-1,-1,-1,-1,-1,-1,-1,-1,-1,-1,-1,-1,-1,-1,-1,-1,-1,-1,-1,-1,-1,-1,-1,-1,-1,-1,-1,-1,-1,-1,-1,-1,-1,-1,-1,-1,-1,-1,-1,-1,-1,-1,-1,-1,-1,-1,-1,-1,-1,-1,-1,-1,-1,-1,-1,-1,-1,-1,-1,-1,-1,-1,-1,-1,-1,-1,-1,-1,-1,-1,-1,-1,-1,-1,-1,-1,-1,-1,-1,-1,-1,-1,-1,-1,-1,-1,-1,-1,-1,-1,-1,-1,-1,-1,-1,-1,-1,-1,-1,-1,-1,-1,-1,-1,-1,-1,-1,-1,-1,-1,-1,-1,-1,-1,-1,-1,-1,-1,-1,-1,-1,-1,-1,-1,-1,-1,-1,-1,-1,-1,-1,-1,-1,-1,-1,-1,-1,-1,-1,-1,-1,-1,-1,-1,-1,-1,-1,-1,-1,-1,-1,-1,-1,-1,-1,-1,-1,-1,-1,-1,-1,-1,-1,-1,-1,-1,-1,-1,-1,-1,-1,-1,-1,-1,-1,-1,-1,-1,-1,-1,-1,-1,-1,-1,-1,-1,-1,-1,-1,-1,-1,-1,-1,-1,-1,-1,-1,-1,-1],"loss_changes":[8.339974E3,1.0870537E3,2.6992905E3,1.2642769E3,9.5399255E2,6.171828E2,1.1033516E3,3.191709E2,3.8499255E2,4.058291E2,5.1490375E2,1.3199707E2,1.671648E2,6.453357E2,4.6568408E2,1.0442578E2,2.344945E2,2.3001874E2,1.6310548E2,3.1393546E2,1.07812744E2,1.9237833E2,1.9640848E2,1.8767578E1,2.0152344E1,1.2587662E2,2.1806274E1,3.369343E2,1.8661084E2,1.8059512E2,1.6703613E2,7.259009E1,9.6447754E1,9.670056E1,1.0397792E2,1.5477545E2,8.493786E1,9.5484825E1,4.9815643E1,2.0378195E2,1.8342249E2,7.6511536E1,5.3048096E1,4.6304077E1,1.118845E2,1.313671E2,8.481119E1,5.520508E0,0E0,7.1767163E0,1.3176741E1,6.458713E1,2.953973E1,1.2291248E1,1.5733505E1,2.2980182E2,1.8742902E2,1.2758984E2,5.388974E1,1.320805E2,5.8611023E1,7.212891E1,6.7910324E1,3.3572716E1,4.227893E1,1.859607E1,8.247217E1,5.5724E1,7.5711365E1,3.911107E1,8.083806E1,4.0147217E1,6.938309E1,3.434246E1,3.2669266E1,8.130371E0,7.876164E1,2.1791443E1,3.5194763E1,9.12381E0,1.1845801E2,6.2757107E1,3.191513E1,1.5661621E1,3.263951E1,1.060379E1,3.9204224E1,1.2032562E1,1.4939011E1,4.512242E1,3.110571E1,5.9845863E1,6.772989E1,4.8704666E1,5.792459E1,8.575E0,2.8572998E0,2.421957E0,6.174243E0,3.0958176E0,9.9498625E0,3.85076E1,9.169186E0,1.10792465E1,1.8081495E1,0E0,1.658693E1,1.0220833E1,1.0932434E1,8.2516235E1,7.177217E1,4.9621E1,1.0532062E2,9.2364105E1,1.2895312E2,2.2429417E1,2.5560776E1,5.7686928E1,7.931598E1,3.3167213E1,3.5270477E1,5.067383E1,4.6208252E1,4.750554E1,4.5839508E1,2.5222788E1,1.6867085E1,4.945984E0,4.6721436E1,6.3564453E0,1.1856506E1,7.201831E1,6.121865E1,1.3419994E1,1.9676758E1,2.9228485E1,6.534729E1,9.547531E0,3.9932495E1,2.1376572E1,5.600104E1,8.841431E0,2.7347046E1,1.0984291E1,7.250739E1,2.6893661E1,2.407265E1,7.9526787E0,2.2051895E1,1.1726227E0,1.95E0,5.5020756E1,5.2375694E1,1.5690355E1,7.7844076E0,1.7726196E1,1.6451918E1,0E0,6.2760534E0,2.626558E1,8.452307E1,2.8125025E1,1.824459E1,2.3500835E1,2.0137268E1,7.4460144E0,1.2587509E1,2.1194092E1,3.0583439E1,9.447754E0,4.375E0,4.503131E1,1.0609039E1,6.175842E-1,2.2E0,3.1026316E0,0E0,3.530613E1,1.4706879E1,2.1233316E1,1.9485943E1,4.2857666E1,2.827488E1,7.1741776E1,4.3368248E1,2.9503674E1,9.7096405E0,1.501619E1,2.0816101E1,0E0,0E0,4.794922E-1,1.151282E1,0E0,2.6467237E0,2.2348485E0,3.0701296E0,0E0,5.9256744E-1,3.4269233E0,4.9136906E0,2.8234716E1,3.955255E1,1.4994239E1,3.1807022E0,4.8088236E0,9.869995E0,9.918451E0,3.0330887E0,7.05375E0,1.06909685E1,0E0,0E0,8.548157E0,9.975221E0,6.857954E1,4.5014137E1,3.5466705E1,3.615377E1,8.465686E0,2.8993362E1,5.4096863E1,7.549194E1,1.4334702E1,3.395599E1,1.4447339E2,6.795935E1,2.2573143E1,2.0683561E1,1.2459496E1,2.0555664E1,8.135872E0,3.6041847E1,5.59308E1,3.2600224E1,2.2713402E1,1.7781952E1,2.582837E1,1.8220299E1,8.262897E1,5.4685974E1,5.018622E1,3.0337158E1,9.747255E0,2.9125092E1,1.9067688E1,1.182864E1,0E0,0E0,0E0,0E0,0E0,0E0,0E0,0E0,0E0,0E0,0E0,0E0,0E0,0E0,0E0,0E0,0E0,0E0,0E0,0E0,0E0,0E0,0E0,0E0,0E0,0E0,0E0,0E0,0E0,0E0,0E0,0E0,0E0,0E0,0E0,0E0,0E0,0E0,0E0,0E0,0E0,0E0,0E0,0E0,0E0,0E0,0E0,0E0,0E0,0E0,0E0,0E0,0E0,0E0,0E0,0E0,0E0,0E0,0E0,0E0,0E0,0E0,0E0,0E0,0E0,0E0,0E0,0E0,0E0,0E0,0E0,0E0,0E0,0E0,0E0,0E0,0E0,0E0,0E0,0E0,0E0,0E0,0E0,0E0,0E0,0E0,0E0,0E0,0E0,0E0,0E0,0E0,0E0,0E0,0E0,0E0,0E0,0E0,0E0,0E0,0E0,0E0,0E0,0E0,0E0,0E0,0E0,0E0,0E0,0E0,0E0,0E0,0E0,0E0,0E0,0E0,0E0,0E0,0E0,0E0,0E0,0E0,0E0,0E0,0E0,0E0,0E0,0E0,0E0,0E0,0E0,0E0,0E0,0E0,0E0,0E0,0E0,0E0,0E0,0E0,0E0,0E0,0E0,0E0,0E0,0E0,0E0,0E0,0E0,0E0,0E0,0E0,0E0,0E0,0E0,0E0,0E0,0E0,0E0,0E0,0E0,0E0,0E0,0E0,0E0,0E0,0E0,0E0,0E0,0E0,0E0,0E0,0E0,0E0,0E0,0E0,0E0,0E0,0E0,0E0,0E0,0E0,0E0,0E0,0E0,0E0,0E0,0E0,0E0,0E0,0E0,0E0,0E0,0E0,0E0,0E0,0E0,0E0,0E0,0E0,0E0,0E0,0E0,0E0,0E0,0E0,0E0,0E0,0E0,0E0,0E0,0E0,0E0,0E0,0E0,0E0,0E0,0E0,0E0,0E0,0E0,0E0,0E0,0E0,0E0,0E0,0E0,0E0],"parents":[2147483647,0,0,1,1,2,2,3,3,4,4,5,5,6,6,7,7,8,8,9,9,10,10,11,11,12,12,13,13,14,14,15,15,16,16,17,17,18,18,19,19,20,20,21,21,22,22,23,23,24,24,25,25,26,26,27,27,28,28,29,29,30,30,31,31,32,32,33,33,34,34,35,35,36,36,37,37,38,38,39,39,40,40,41,41,42,42,43,43,44,44,45,45,46,46,47,47,49,49,50,50,51,51,52,52,53,53,54,54,55,55,56,56,57,57,58,58,59,59,60,60,61,61,62,62,63,63,64,64,65,65,66,66,67,67,68,68,69,69,70,70,71,71,72,72,73,73,74,74,75,75,76,76,77,77,78,78,79,79,80,80,81,81,82,82,83,83,84,84,85,85,86,86,87,87,88,88,89,89,90,90,91,91,92,92,93,93,94,94,95,95,96,96,97,97,98,98,99,99,100,100,101,101,102,102,103,103,104,104,106,106,107,107,108,108,109,109,110,110,111,111,112,112,113,113,114,114,115,115,116,116,117,117,118,118,119,119,120,120,121,121,122,122,123,123,124,124,125,125,126,126,127,127,128,128,129,129,130,130,131,131,132,132,133,133,134,134,135,135,136,136,137,137,138,138,139,139,140,140,141,141,142,142,143,143,144,144,145,145,146,146,147,147,148,148,149,149,150,150,151,151,152,152,153,153,154,154,155,155,156,156,158,158,159,159,160,160,161,161,162,162,163,163,164,164,165,165,166,166,167,167,168,168,169,169,170,170,171,171,172,172,173,173,174,174,175,175,177,177,178,178,179,179,180,180,181,181,182,182,183,183,184,184,185,185,186,186,187,187,188,188,191,191,192,192,194,194,195,195,196,196,198,198,199,199,200,200,201,201,202,202,203,203,204,204,205,205,206,206,207,207,208,208,209,209,210,210,213,213,214,214,215,215,216,216,217,217,218,218,219,219,220,220,221,221,222,222,223,223,224,224,225,225,226,226,227,227,228,228,229,229,230,230,231,231,232,232,233,233,234,234,235,235,236,236,237,237,238,238,239,239,240,240,241,241,242,242,243,243,244,244,245,245,246,246],"right_children":[2,4,6,8,10,12,14,16,18,20,22,24,26,28,30,32,34,36,38,40,42,44,46,48,50,52,54,56,58,60,62,64,66,68,70,72,74,76,78,80,82,84,86,88,90,92,94,96,-1,98,100,102,104,106,108,110,112,114,116,118,120,122,124,126,128,130,132,134,136,138,140,142,144,146,148,150,152,154,156,158,160,162,164,166,168,170,172,174,176,178,180,182,184,186,188,190,192,194,196,198,200,202,204,206,208,-1,210,212,214,216,218,220,222,224,226,228,230,232,234,236,238,240,242,244,246,248,250,252,254,256,258,260,262,264,266,268,270,272,274,276,278,280,282,284,286,288,290,292,294,296,298,300,302,304,306,308,310,-1,312,314,316,318,320,322,324,326,328,330,332,334,336,338,340,342,344,346,-1,348,350,352,354,356,358,360,362,364,366,368,370,-1,-1,372,374,-1,376,378,380,-1,382,384,386,388,390,392,394,396,398,400,402,404,406,-1,-1,408,410,412,414,416,418,420,422,424,426,428,430,432,434,436,438,440,442,444,446,448,450,452,454,456,458,460,462,464,466,468,470,472,474,-1,-1,-1,-1,-1,-1,-1,-1,-1,-1,-1,-1,-1,-1,-1,-1,-1,-1,-1,-1,-1,-1,-1,-1,-1,-1,-1,-1,-1,-1,-1,-1,-1,-1,-1,-1,-1,-1,-1,-1,-1,-1,-1,-1,-1,-1,-1,-1,-1,-1,-1,-1,-1,-1,-1,-1,-1,-1,-1,-1,-1,-1,-1,-1,-1,-1,-1,-1,-1,-1,-1,-1,-1,-1,-1,-1,-1,-1,-1,-1,-1,-1,-1,-1,-1,-1,-1,-1,-1,-1,-1,-1,-1,-1,-1,-1,-1,-1,-1,-1,-1,-1,-1,-1,-1,-1,-1,-1,-1,-1,-1,-1,-1,-1,-1,-1,-1,-1,-1,-1,-1,-1,-1,-1,-1,-1,-1,-1,-1,-1,-1,-1,-1,-1,-1,-1,-1,-1,-1,-1,-1,-1,-1,-1,-1,-1,-1,-1,-1,-1,-1,-1,-1,-1,-1,-1,-1,-1,-1,-1,-1,-1,-1,-1,-1,-1,-1,-1,-1,-1,-1,-1,-1,-1,-1,-1,-1,-1,-1,-1,-1,-1,-1,-1,-1,-1,-1,-1,-1,-1,-1,-1,-1,-1,-1,-1,-1,-1,-1,-1,-1,-1,-1,-1,-1,-1,-1,-1,-1,-1,-1,-1,-1,-1,-1,-1,-1,-1,-1,-1,-1,-1,-1,-1,-1,-1,-1,-1],"split_conditions":[1.1E0,-6E-1,5.7312E2,1.6E1,1E0,5.210764E2,1.8613227E5,-1.7E0,-2.9E0,2.22E2,8.8254E2,3.8628E2,1.1E-1,2.8E0,1.6703192E2,1.4023407E3,5E0,6.880926E2,1.68776E2,3.0816562E5,8.2886904E-1,2.898E2,1E1,5.354235E2,4.4E-1,1.8613227E5,1.63488E2,-1E0,2.27E2,3.6891733E3,2.21E2,1.77E2,1.577032E4,1.4023407E3,9.3552E2,2.4E1,3.38093E5,5.210764E2,1.22779E3,5.210764E2,2.03E2,1.6825428E3,1.1634075E3,5.210764E2,1.2E-1,8.257361E4,1.1E-1,1.5612535E2,4.9199992E-1,2.281525E1,1.6E1,6.2E0,9E1,1.8746359E1,2.796692E4,2.28E2,7.785E2,9.489E2,2.34E2,6.732172E1,2.4E0,2.7785711E1,9.2410713E-1,5.1E1,7.5081964E2,3.2558E4,2.4040651E1,1.74E2,1.74384E3,4.572E2,1.382464E4,-5E0,1.601423E4,1E-1,2.6989014E2,3.8628E2,1.8876983E5,-1.8E0,1.36E2,9.87552E1,3.97552E3,4.3690476E-1,2.0515929E2,7E0,3.115675E4,9.108E2,2.4349398E5,3.54E2,3.0144308E2,2.19E2,8.59966E4,3E-1,2.22E2,2.52257E5,4.4536E4,-5E-1,3.5230698E2,4E-1,2.3E1,8E-1,2.8E0,3.6636904E-1,7.5E0,1.4E0,8.032382E2,-2.016E0,7.186939E2,1.8E0,9.967262E-1,8.257361E4,2.33E2,4.685027E4,1.67E2,4.42598E4,-3E0,7.437825E4,3.1964287E-1,1.65E2,1.7E2,-2E0,2.19E2,1.0122199E2,1.070789E3,2.25E2,1.597E3,6.042E1,4.854327E4,-1E1,5E-1,1.922E1,6.234898E-1,2.2842747E5,8.7E1,4.547619E-1,8.2761926E2,2.05E2,3.386167E4,3.4E4,1.9E0,9E-1,9.524861E1,1.67751E5,4.6E-1,2.35E2,-5.5E0,2.5E2,-5.7E0,-6.8E0,-3.2E0,2.4352072E2,6E0,3.5E1,1.7551332E1,3.6E0,3.1867E4,2.36E2,7.870833E-1,-1.5315001E0,6.0702384E-1,1.22058E3,7.9152E2,5E-1,-2.1E1,1.122375E3,2.19E2,7E-1,7.5312E2,2.26E2,1.1750857E1,1.32E3,8.3136E2,2E3,2.6712228E2,2.5204178E2,1E-1,2.577179E1,-3.21E-1,1.69052E5,2.91E1,8.1864E2,9E0,9.682179E3,2.804265E3,1.97E2,1.597E3,1.4285119E1,6.1494046E-1,6.540777E2,2.5E1,9.971999E0,-7.1999997E-1,4.164405E2,2E0,3.9720001E0,2.3341917E1,2.02E1,1.5E0,-1.1220001E0,4.5714286E-1,1.67E2,2.35E1,7.4852676E0,4.685027E4,7.995378E4,8.2E1,5E0,1.44E1,1.8E0,2E-1,5.7E0,5.5872E2,-9.0000004E-1,2.907E0,9.6E1,1.66E2,-1.1E1,1.7E2,4.295357E1,3.9905094E1,1.1711378E3,7.8705E1,2.470238E-1,4.986905E-1,1.69E2,-5E-1,2.2616185E2,1.88184E3,2.2892969E3,2.1823765E3,7.8190476E-1,2.2665949E1,8.1964284E-1,2.9E0,1.7291139E3,2.9345238E-1,2.2633966E1,2.1130952E-1,4.3019596E1,1.2246469E-16,3.6891733E3,1.69E2,-2E-1,2.3023945E3,1.67E3,2.0833333E-1,7.762857E1,-6E0,-1.5955E0,1.6380001E0,2.3999978E-2,-1.6744999E0,1.1999989E-2,-1.54875E0,-2.673E0,-2.5635002E0,1.49616E2,-3.7395E0,-4.992E0,-4.014E0,-2.9880002E0,-8.874001E0,1.9425002E-1,-3.966E0,-9.705E-1,2.28E0,-1.5525E0,-2.142E0,7.1295E0,-1.2945E0,-3.816E0,-4.0290003E0,-1.362E0,-1.52125E0,-1.302E0,-3.2200003E-1,-1.8450001E0,7.200003E-2,-1.2E0,2.46E-1,-4.0020003E0,-8.748E0,-3.309E0,-2.22E0,-4.68E0,4.7699997E-1,-2.3220003E0,-4.6199998E-1,-1.332E0,7.0909996E0,-6.732E0,9.4799995E-1,-5.133E0,2.0736E1,-1.0362E1,6.2879996E0,-1.5615E0,-6.6E-1,-5.2079997E0,1.362E0,-4.5299998E-1,2.1600003E0,-3.8580003E0,3.3420002E0,-1.0915002E0,1.8299999E0,1.458E0,-1.19000055E-1,8.004E0,-1.63725E0,-1.4150004E-1,5.49E0,7.3800004E-1,-1.086E0,4.1400003E-1,-1.404E0,-9.450001E-1,-6.66E-1,-2.184E0,1.3499995E-1,-2.9940002E0,3.246E0,-9.1800004E-1,3.4920003E0,6.588E0,4.02875E0,-1.4940001E0,-1.8000001E0,-5.9400004E-1,-2.16E0,-3.3795E0,-1.1610001E0,-4.0260005E0,-1.0979999E0,-1.6865E0,-2.3670003E0,7.8000003E-1,-2.796E0,-5.820001E-1,-2.73E0,-4.6E0,-9.111251E0,-1.2E0,-1.5500001E0,6.12E-1,-6.4800006E-1,2.43585E1,-2.592E0,-8.205E-1,1.0199995E-1,-1.5300001E0,3.9020002E0,5.85E-1,-9.2700005E-1,4.9800006E-1,2.727E0,-9.8999995E-1,1.146E0,-1.9800006E-1,1.134E0,4.3800002E-1,2.5725E0,-2.112E0,3.5099992E-1,-9.780001E-1,9.179999E-1,9.089999E0,7.182E0,1.17E0,2.5830002E1,6.2795005E0,1.0878E1,-1.5150001E0,-7.9800004E-1,2.6999998E-1,-6E-1,-1.722E0,1.698E0,-9.6000004E-1,1.3050001E0,3.6900002E-1,-6.7200005E-1,2.7240002E0,1.2810001E0,-3.4259999E0,8.3399993E-1,9.03E-1,-1.302E0,1.7520001E0,-3.3E-1,-1.1400004E-1,-6.84E-1,-4.5450002E-1,7.0199996E-1,1.7700001E0,-1.8180001E0,-4.5000002E-1,3.54E-1,-4.995E-1,1.0275E0,3.6750004E-1,-3.9000008E-1,-9.0000056E-2,2.97E0,-1.4100001E0,2.6999998E-1,2.403E0,-1.3095E0,3.8580003E0,-1.6350001E0,-4.2000007E-2,1.9862502E0,-1.0045E0,1.7400007E-1,3.0600002E0,1.01025E0,-1.89E0,-6.3059998E0,-1.2720001E0,2.3075001E0,9.3E-1,6.1860003E0,-6.9750005E-1,2.9520001E0,-1.4940001E0,3.93825E0,3.659999E-1,1.8000001E0,3.4935002E0,1.989E0,1.7580003E0,-4.4999983E-2,3.279E0,1.074E0,2.55E0,6.2219996E0,-8.9400005E-1,-8.442E0,-1.9287E1,6.4587493E0,1.95E0,4.5150003E0,-2.9220002E0,1.062E0,-1.2449999E-1,-1.3040001E0,-6.535E-1,9.1899997E-1,7.8899994E0,3.1149998E-1,2.7E0,-2.9025003E-1,-2.97E0,4.1400003E0,1.4634E1,4.3095E0,-6.8271996E1,1.2222E1,-2.1055E0,8.982E0,2.5740001E0,4.698E0,2.096025E1,7.632E0,1.8450002E-1,3.4350002E0,8.712E0,1.7574E1,7.6737504E0,-3.3059998E0,-4.2660003E0,4.6260004E0,2.1060002E0,-1.9620001E0,-7.07425E0,-6.9E-1],"split_indices":[25,25,22,31,31,23,7,25,25,15,22,22,36,25,41,23,31,40,40,7,37,22,31,40,6,7,40,31,15,23,15,15,8,23,22,31,7,23,23,23,15,23,23,23,36,7,36,41,0,33,12,25,4,33,7,15,22,22,15,43,25,33,37,4,23,7,32,15,22,22,7,25,7,5,41,22,7,25,17,40,8,35,41,12,7,40,8,40,41,15,8,25,15,8,8,18,41,28,24,3,3,37,25,25,23,0,23,6,37,7,15,7,15,7,31,8,35,15,15,31,15,43,23,15,23,22,7,31,36,22,21,7,17,35,23,10,7,8,3,29,41,7,36,15,25,11,25,25,25,41,12,31,32,2,8,15,37,0,37,22,22,25,31,23,15,28,22,15,43,22,22,10,43,41,2,32,0,7,24,22,31,23,23,15,23,43,37,41,31,0,0,40,13,0,32,24,25,0,35,15,24,43,7,7,4,12,24,25,28,25,22,0,0,4,15,31,15,43,43,23,40,35,37,15,18,41,22,23,23,37,32,37,25,23,35,32,35,41,18,23,15,27,23,10,35,43,31,0,0,0,0,0,0,0,0,0,0,0,0,0,0,0,0,0,0,0,0,0,0,0,0,0,0,0,0,0,0,0,0,0,0,0,0,0,0,0,0,0,0,0,0,0,0,0,0,0,0,0,0,0,0,0,0,0,0,0,0,0,0,0,0,0,0,0,0,0,0,0,0,0,0,0,0,0,0,0,0,0,0,0,0,0,0,0,0,0,0,0,0,0,0,0,0,0,0,0,0,0,0,0,0,0,0,0,0,0,0,0,0,0,0,0,0,0,0,0,0,0,0,0,0,0,0,0,0,0,0,0,0,0,0,0,0,0,0,0,0,0,0,0,0,0,0,0,0,0,0,0,0,0,0,0,0,0,0,0,0,0,0,0,0,0,0,0,0,0,0,0,0,0,0,0,0,0,0,0,0,0,0,0,0,0,0,0,0,0,0,0,0,0,0,0,0,0,0,0,0,0,0,0,0,0,0,0,0,0,0,0,0,0,0,0,0,0,0,0,0,0,0,0,0,0,0,0,0],"split_type":[0,0,0,0,0,0,0,0,0,0,0,0,0,0,0,0,0,0,0,0,0,0,0,0,0,0,0,0,0,0,0,0,0,0,0,0,0,0,0,0,0,0,0,0,0,0,0,0,0,0,0,0,0,0,0,0,0,0,0,0,0,0,0,0,0,0,0,0,0,0,0,0,0,0,0,0,0,0,0,0,0,0,0,0,0,0,0,0,0,0,0,0,0,0,0,0,0,0,0,0,0,0,0,0,0,0,0,0,0,0,0,0,0,0,0,0,0,0,0,0,0,0,0,0,0,0,0,0,0,0,0,0,0,0,0,0,0,0,0,0,0,0,0,0,0,0,0,0,0,0,0,0,0,0,0,0,0,0,0,0,0,0,0,0,0,0,0,0,0,0,0,0,0,0,0,0,0,0,0,0,0,0,0,0,0,0,0,0,0,0,0,0,0,0,0,0,0,0,0,0,0,0,0,0,0,0,0,0,0,0,0,0,0,0,0,0,0,0,0,0,0,0,0,0,0,0,0,0,0,0,0,0,0,0,0,0,0,0,0,0,0,0,0,0,0,0,0,0,0,0,0,0,0,0,0,0,0,0,0,0,0,0,0,0,0,0,0,0,0,0,0,0,0,0,0,0,0,0,0,0,0,0,0,0,0,0,0,0,0,0,0,0,0,0,0,0,0,0,0,0,0,0,0,0,0,0,0,0,0,0,0,0,0,0,0,0,0,0,0,0,0,0,0,0,0,0,0,0,0,0,0,0,0,0,0,0,0,0,0,0,0,0,0,0,0,0,0,0,0,0,0,0,0,0,0,0,0,0,0,0,0,0,0,0,0,0,0,0,0,0,0,0,0,0,0,0,0,0,0,0,0,0,0,0,0,0,0,0,0,0,0,0,0,0,0,0,0,0,0,0,0,0,0,0,0,0,0,0,0,0,0,0,0,0,0,0,0,0,0,0,0,0,0,0,0,0,0,0,0,0,0,0,0,0,0,0,0,0,0,0,0,0,0,0,0,0,0,0,0,0,0,0,0,0,0,0,0,0,0,0,0,0,0,0,0,0,0,0,0,0,0,0,0,0,0],"sum_hessian":[1.49703E5,8.47E4,6.5003E4,4.4266E4,4.0434E4,5.425E3,5.9578E4,3.0211E4,1.4055E4,2.0929E4,1.9505E4,1.71E3,3.715E3,4.179E4,1.7788E4,1.47E4,1.5511E4,7.677E3,6.378E3,1.287E4,8.059E3,3.233E3,1.6272E4,1.597E3,1.13E2,3.273E3,4.42E2,2.1613E4,2.0177E4,4.992E3,1.2796E4,4.045E3,1.0655E4,9.035E3,6.476E3,6.565E3,1.112E3,4.684E3,1.694E3,1.0714E4,2.156E3,3.909E3,4.15E3,4.67E2,2.766E3,1.0761E4,5.511E3,1.592E3,5E0,4.8E1,6.5E1,2.962E3,3.11E2,1.26E2,3.16E2,1.1562E4,1.0051E4,1.9433E4,7.44E2,3.176E3,1.816E3,1.134E4,1.456E3,3.37E2,3.708E3,1.012E3,9.643E3,2.068E3,6.967E3,1.199E3,5.277E3,2.338E3,4.227E3,8.35E2,2.77E2,1.06E2,4.578E3,2.55E2,1.439E3,3.68E2,1.0346E4,1.154E3,1.002E3,1.29E3,2.619E3,5.86E2,3.564E3,4.42E2,2.5E1,2.059E3,7.07E2,3.741E3,7.02E3,2.545E3,2.966E3,1.1E1,1.581E3,2.7E1,2.1E1,3.8E1,2.7E1,2.846E3,1.16E2,2.16E2,9.5E1,1.1E1,1.15E2,1.5E1,3.01E2,9.964E3,1.598E3,8.6E2,9.191E3,2.215E3,1.7218E4,4.8E2,2.64E2,1.696E3,1.48E3,7.26E2,1.09E3,4.711E3,6.629E3,1.145E3,3.11E2,1.09E2,2.28E2,5.97E2,3.111E3,6.9E2,3.22E2,8.235E3,1.408E3,2.83E2,1.785E3,2.005E3,4.962E3,2.39E2,9.6E2,1.79E2,5.098E3,5.3E2,1.808E3,1.46E2,4.081E3,6.66E2,1.69E2,3.4E1,2.43E2,1.02E2,4E0,3.498E3,1.08E3,1.31E2,1.24E2,1.122E3,3.17E2,3.25E2,4.3E1,4.14E2,9.932E3,9.54E2,2E2,3.57E2,6.45E2,3.82E2,9.08E2,2.82E2,2.337E3,5.79E2,7E0,3.22E3,3.44E2,4.37E2,5E0,1.9E1,6E0,1.598E3,4.61E2,5.03E2,2.04E2,2.015E3,1.726E3,5.371E3,1.649E3,2.317E3,2.28E2,1.297E3,1.669E3,4E0,7E0,1.552E3,2.9E1,1E0,2.6E1,1.1E1,1E1,1E0,3.7E1,1.2E1,1.5E1,1.17E2,2.729E3,5.7E1,5.9E1,1.6E1,2E2,7.9E1,1.6E1,3.1E1,8.4E1,1.1E1,4E0,1.8E2,1.21E2,5.029E3,4.935E3,1.076E3,5.22E2,1.65E2,6.95E2,2.275E3,6.916E3,4.93E2,1.722E3,1.2E4,5.218E3,3.92E2,8.8E1,1.54E2,1.1E2,1.37E2,1.559E3,4.53E2,1.027E3,3.46E2,3.8E2,1.024E3,6.6E1,3.093E3,1.618E3,1.021E3,5.608E3,4.6E1,1.099E3,1.09E2,2.02E2,1.5E1,9.4E1,6.2E1,1.66E2,3E0,5.94E2,1.891E3,1.22E3,2E0,6.88E2,2.32E2,9E1,6.09E3,2.145E3,5.4E2,8.68E2,2.48E2,3.5E1,3.56E2,1.429E3,2.9E1,1.976E3,6.26E2,4.336E3,7.3E1,1.66E2,6.83E2,2.77E2,1.52E2,2.7E1,3.243E3,1.855E3,2.95E2,2.35E2,6.82E2,1.126E3,1.37E2,9E0,1.171E3,2.91E3,5.1E1,6.15E2,3.3E1,1.36E2,3E0,3.1E1,2.13E2,3E1,9.9E1,3E0,1E0,3E0,3.185E3,3.13E2,8.9E1,9.91E2,1.22E2,9E0,7.1E1,5.3E1,1.088E3,3.4E1,1.88E2,1.29E2,3E0,4E1,1.7E1,3.97E2,1.499E3,8.433E3,5.24E2,4.3E2,2.1E1,1.79E2,3.3E1,3.24E2,4.91E2,1.54E2,1.75E2,2.07E2,9.8E1,8.1E2,1.08E2,1.74E2,2.98E2,2.039E3,5.29E2,5E1,5E0,2E0,2.87E2,2.933E3,3.2E1,3.12E2,4.4E1,3.93E2,4E0,1E0,1.8E1,1E0,1.246E3,3.52E2,4.47E2,1.4E1,3.94E2,1.09E2,7.9E1,1.25E2,1.665E3,3.5E2,1.117E3,6.09E2,2.105E3,3.266E3,2.6E2,1.389E3,2.86E2,2.031E3,9.7E1,1.31E2,1.269E3,2.8E1,1.288E3,3.81E2,1.547E3,5E0,4E0,2.5E1,2.5E1,1E0,1E0,1E1,4E0,6E0,3.3E1,4E0,3E0,9E0,2E0,1.3E1,7.8E1,3.9E1,2.91E2,2.438E3,3.6E1,2.1E1,5.6E1,3E0,1.3E1,3E0,4E0,1.96E2,2E1,5.9E1,1E0,1.5E1,2.4E1,7E0,7E1,1.4E1,1.77E2,3E0,3.7E1,8.4E1,1.187E3,3.842E3,5.79E2,4.356E3,7.51E2,3.25E2,3.72E2,1.5E2,1.39E2,2.6E1,6.7E2,2.5E1,4.1E1,2.234E3,1.733E3,5.183E3,1.32E2,3.61E2,3.17E2,1.405E3,9.924E3,2.076E3,2.457E3,2.761E3,2.13E2,1.79E2,2.4E1,6.4E1,8.9E1,6.5E1,5.5E1,5.5E1,2.3E1,1.14E2,8.08E2,7.51E2,3.37E2,1.16E2,6.87E2,3.4E2,1.51E2,1.95E2,1.89E2,1.91E2,1.1E1,1.013E3,4.9E1,1.7E1,2.114E3,9.79E2,7.62E2,8.56E2,1.6E2,8.61E2,1.943E3,3.665E3,4E0,4.2E1,2.7E1,1.072E3,1E2,9E0,1.22E2,8E1],"tree_param":{"num_deleted":"0","num_feature":"44","num_nodes":"475","size_leaf_vector":"1"}},{"base_weights":[-5.371716E-3,-2.0558941E-1,2.5587118E-1,-8.6210936E-1,-1.8516043E-1,-4.0318108E-1,3.1564203E-1,-9.656955E-1,-3.5103926E-1,-2.8508574E-1,-5.321489E-2,-8.985765E-1,-1.7866738E-1,1.9659504E-1,4.195332E-1,-9.804109E-1,-8.3333336E-2,3.4285715E-1,-4.1102758E-1,-3.9145723E-1,-3.860867E-2,-1.9502407E-1,1.04823805E-1,-9.6892834E-1,1.1818182E-1,-2.570122E-1,4.0180588E-1,3.7639007E-2,2.7723524E-1,3.6530155E-1,5.6401104E-1,-4.9866453E-2,-8.333333E-1,-4.375E-2,1.3793103E-1,4.6153847E-2,-0E0,-4.7439352E-1,4.1379312E-1,-5.0930685E-1,-2.9876018E-1,-2.0164222E-1,1.4249402E-1,-8.454682E-2,-3.6508152E-1,1.3742072E-3,2.386488E-1,-9.7894067E-1,5.4545456E-1,4.8076924E-2,-1.4117648E-1,1.884422E-2,-3.4527162E-1,5E-2,5.625E-1,1.2766254E-1,-2.6036867E-1,4.195535E-2,3.1581938E-1,5.3965825E-1,3.2972747E-1,5.9103405E-1,-1.3975155E-1,-8.5E-1,3.3333335E-2,-3.125E-1,6.4285713E-1,-2.777778E-1,4.1666668E-2,-5.8181816E-1,-1.6494845E-1,8.5E-1,-5E-1,-2.4765868E-1,-5.279803E-1,-3.9532983E-1,-1.5320373E-1,-2.6844165E-1,2.0669857E-1,2.4973227E-1,-1.0544554E-1,-2.0379394E-1,3.8131043E-2,-2.577984E-1,-4.8449168E-1,-3.2208785E-1,6.577947E-2,1.21313676E-1,4.2368698E-1,-1.8181819E-1,-9.8394346E-1,4.2857144E-2,-0E0,-7.222222E-1,1.4705882E-2,8.6603515E-2,-8.448276E-1,4.8275862E-2,-3.6060235E-1,-5.714286E-1,2.54717E-1,6.0750854E-1,-5.833333E-1,5.2644346E-2,2.2860876E-1,-3.4671766E-1,-3.4883723E-2,-2.900641E-1,1.4683545E-1,5.2077776E-1,2.7510786E-1,3.1462586E-1,5.791842E-1,1.7880942E-1,3.758403E-1,-3.214286E-2,6.125402E-1,-6.333333E-1,2.8901735E-1,1.6666667E-1,-8.744186E-1,-4.4444446E-2,3.75E-1,4.5454547E-2,-2.5E-1,-5.833333E-1,2.857143E-1,-7.083333E-1,-3.7962964E-1,-4.8076922E-1,1.9565217E-1,-0E0,4.7222223E-2,2.5E-1,-4.2857144E-2,-1.024E-1,-5.1632047E-1,-6.6794795E-1,-4.808591E-1,-3.2399213E-1,-4.839959E-1,-2.2170812E-1,1.46364495E-2,-4.5779938E-1,-1.6444337E-1,-3.0508474E-1,3.1070197E-1,1.5037853E-1,4.1326532E-1,-4.1564792E-1,-2.6674937E-2,1.7124394E-1,-2.4902496E-1,-3.101777E-1,8.152174E-2,-4.5333335E-1,-1.6199616E-1,-7.1850395E-1,-4.4436973E-1,-2.4102154E-1,-6.394984E-1,1.3273543E-1,-9.542314E-2,4.1666668E-2,2.5524265E-1,2.1642764E-1,5.0024146E-1,4.0000003E-2,-4.2857144E-2,-9.9148655E-1,-5.8064514E-1,3.3333335E-2,-3.3333335E-2,-4.6666667E-2,2.5E-1,3.1111112E-1,-5.416667E-1,1.5716487E-1,-4.1758242E-1,-9.074074E-1,-0E0,-4.0896225E-1,-5.6213018E-2,-7.6666665E-1,5E-1,-4.4999998E-2,3.71134E-1,6.498195E-1,-1.1764706E-1,-4.4999998E-2,3.3333335E-2,3.3606556E-1,-2.1413276E-2,-3.9267014E-3,3.0578512E-1,-4.5686513E-1,-2.248996E-1,-3.443396E-1,1.3299233E-1,1.574074E-1,-3.8297874E-1,7.1590906E-1,1.2023305E-1,4.185185E-1,7.833787E-1,2.1914548E-1,3.6040512E-1,5.0268817E-1,-9.21659E-3,6.085782E-1,3.449198E-1,-1.05995715E-1,2.5329223E-1,3.955767E-1,5.1948052E-2,-3.178808E-1,3E-1,4.152439E-1,6.626338E-1,6.666667E-1,-7.112676E-1,9.019608E-1,3.2520324E-2,-3.3333335E-2,3.75E-2,-4.747191E-2,-2.5E-2,-3.3333335E-2,4.1666668E-2,-3.3333335E-2,2.5E-2,-4.2857144E-2,-8.333334E-3,-1.25E-2,3.75E-2,-3.6890246E-2,2.0000001E-2,-1.1309524E-2,-4.4E-2,-3.214286E-2,9.09091E-3,2.0833334E-2,-2.727273E-2,-2.5E-2,2.5E-2,3.3333335E-2,-2.5E-2,1.6867471E-3,-1.8483413E-2,-2.8921569E-2,4.6875E-3,-2.6428571E-2,-3.71637E-2,-2.0022742E-2,-2.9329801E-2,-2.1354765E-2,-3.346682E-3,-1.5678255E-2,-2.7827857E-2,-1.6474465E-2,-3.4835115E-3,-1.7307693E-2,3.5460994E-3,-3.5173826E-2,-1.949296E-2,1.9636364E-3,-1.3313933E-2,-4.125E-2,-7.6086954E-3,-1.884058E-2,1.8476903E-2,2.1779662E-2,3.8843334E-3,-2.1929825E-4,2.3747561E-2,-3.7727274E-2,-1.45E-2,-8.279221E-3,7.982584E-3,-2.3275863E-2,1.183274E-2,-1.2903543E-2,3.469388E-2,1.13402065E-2,-2.045889E-2,-6.4665126E-3,7.8065395E-3,-3.2659575E-2,-1.6811414E-2,-1.1073059E-2,7.5721154E-3,-3.7119675E-2,3.125E-3,-1.3642298E-2,-2.5180995E-2,-5.899705E-4,-1.6284153E-2,-0E0,-3.457627E-2,2.5725397E-3,1.2718315E-2,-1.32057415E-2,2.1619496E-3,4.44738E-3,-7.899629E-3,5.8127022E-3,2.1457491E-2,-4.519774E-3,1.5397631E-2,2.8858578E-2,1.7083948E-2,-4.963887E-2,-2.0000001E-2,4.1666668E-2,-4.423077E-2,-2.5E-2,3.3333335E-2,-2.2222223E-2,2.4324326E-2,1.4285715E-2,-4.1666668E-2,-1.9886365E-2,1.21886125E-2,-3.557692E-2,-1.2500001E-3,-4.886364E-2,-2.727273E-2,3.3333335E-2,-3.3333335E-2,-2.2507789E-2,-0E0,1.3839285E-2,-1.1013216E-2,-4.464286E-2,3.3333335E-2,-2.5E-2,4.0000003E-2,2.6219511E-2,-2.1875E-2,3.75E-2,1.8243244E-2,-4.4444446E-2,3.3333335E-2,2.7508093E-2,1.0714286E-2,4.327453E-3,-7.7953297E-3,-1.2125748E-2,9.048725E-3,2.8230337E-2,1.2911523E-2,-1.8604651E-2,-3.1698115E-2,-2.6282052E-2,-4.3774317E-3,2.0000001E-2,-2.2074468E-2,-2.0238096E-2,9.857143E-3,2.4444444E-2,-3.90625E-3,-7.0921984E-4,-2.5994694E-2,3.678161E-2,-2.5E-2,-2.5404159E-3,8.550825E-3,1.7544417E-2,3.7777778E-2,1.6393444E-2,4.117211E-2,1.4660351E-2,6.5681445E-3,2.143885E-2,1.1256396E-2,3.3411216E-2,1.3836478E-2,1.880342E-2,-2.2772279E-2,2.6952893E-2,3.4941636E-2,1.0408922E-2,3.443396E-2,-1.7222224E-2,5.773196E-3,8.518684E-3,1.9704994E-2,1.6950812E-2,2.4495289E-2,-1.9081272E-2,1.3451328E-2,2.9411767E-2,-2.1481482E-2,1.965812E-2,-2.5E-2,3.9538044E-2,1.5318147E-2,3.151114E-2,4.17734E-2,4.2857144E-2,-0E0,-3.925926E-2,3.125E-2,-0E0,4.6938777E-2,3.0357143E-2,-6.770834E-3],"categories":[],"categories_nodes":[],"categories_segments":[],"categories_sizes":[],"default_left":[0,0,0,0,0,0,0,1,0,0,0,0,0,0,0,1,0,0,0,0,0,0,0,1,0,0,0,0,0,0,0,0,0,0,0,0,0,0,0,0,0,1,0,0,0,0,0,0,0,0,0,1,0,0,1,0,0,0,0,0,0,0,0,0,0,0,0,0,0,0,0,0,0,0,0,0,1,0,0,1,0,0,0,0,0,0,0,0,0,0,1,0,0,0,0,0,0,0,0,0,0,0,0,0,0,0,0,0,0,1,0,0,0,0,1,0,0,0,0,0,0,0,0,0,0,0,0,0,0,0,0,0,0,0,0,0,0,0,0,0,0,0,0,0,0,0,0,0,0,0,0,0,1,0,0,0,1,0,0,0,0,0,0,0,1,0,0,0,0,1,0,0,0,0,0,0,0,0,0,0,0,0,0,0,0,0,0,0,0,0,0,0,0,0,0,0,0,0,0,0,0,0,0,0,0,1,0,0,0,0,1,0,0,0,0,0,0,0,1,0,0,0,0,0,0,0,0,0,0,0,0,0,0,0,0,0,0,0,0,0,0,0,0,0,0,0,0,0,0,0,0,0,0,0,0,0,0,0,0,0,0,0,0,0,0,0,0,0,0,0,0,0,0,0,0,0,0,0,0,0,0,0,0,0,0,0,0,0,0,0,0,0,0,0,0,0,0,0,0,0,0,0,0,0,0,0,0,0,0,0,0,0,0,0,0,0,0,0,0,0,0,0,0,0,0,0,0,0,0,0,0,0,0,0,0,0,0,0,0,0,0,0,0,0,0,0,0,0,0,0,0,0,0,0,0,0,0,0,0,0,0,0,0,0,0,0,0,0,0,0,0,0,0,0,0,0,0,0,0,0,0,0,0,0,0,0,0,0,0,0,0,0,0,0,0,0,0,0,0,0,0,0,0,0,0,0,0],"id":1,"left_children":[1,3,5,7,9,11,13,15,17,19,21,23,25,27,29,31,33,35,37,39,41,43,45,47,49,51,53,55,57,59,61,-1,63,-1,65,-1,67,69,71,73,75,77,79,81,83,85,87,89,91,-1,93,95,97,99,101,103,105,107,109,111,113,115,117,119,-1,121,123,125,-1,127,129,131,133,135,137,139,141,143,145,147,149,151,153,155,157,159,161,163,165,167,169,-1,171,173,175,177,179,-1,181,183,185,187,189,191,193,195,197,199,201,203,205,207,209,211,213,215,217,219,221,223,225,-1,227,-1,229,231,233,235,237,239,241,243,-1,245,-1,247,249,251,253,255,257,259,261,263,265,267,269,271,273,275,277,279,281,283,285,287,289,291,293,295,297,299,301,303,305,307,309,-1,-1,311,313,-1,-1,-1,315,317,319,321,323,325,327,329,331,333,335,-1,337,339,341,-1,-1,343,345,347,349,351,353,355,357,359,361,363,365,367,369,371,373,375,377,379,381,383,385,387,389,391,393,395,397,399,401,403,405,-1,-1,-1,-1,-1,-1,-1,-1,-1,-1,-1,-1,-1,-1,-1,-1,-1,-1,-1,-1,-1,-1,-1,-1,-1,-1,-1,-1,-1,-1,-1,-1,-1,-1,-1,-1,-1,-1,-1,-1,-1,-1,-1,-1,-1,-1,-1,-1,-1,-1,-1,-1,-1,-1,-1,-1,-1,-1,-1,-1,-1,-1,-1,-1,-1,-1,-1,-1,-1,-1,-1,-1,-1,-1,-1,-1,-1,-1,-1,-1,-1,-1,-1,-1,-1,-1,-1,-1,-1,-1,-1,-1,-1,-1,-1,-1,-1,-1,-1,-1,-1,-1,-1,-1,-1,-1,-1,-1,-1,-1,-1,-1,-1,-1,-1,-1,-1,-1,-1,-1,-1,-1,-1,-1,-1,-1,-1,-1,-1,-1,-1,-1,-1,-1,-1,-1,-1,-1,-1,-1,-1,-1,-1,-1,-1,-1,-1,-1,-1,-1,-1,-1,-1,-1,-1,-1,-1,-1,-1,-1,-1,-1,-1,-1,-1,-1,-1,-1,-1,-1,-1,-1,-1,-1,-1,-1,-1,-1,-1,-1,-1,-1,-1,-1],"loss_changes":[7.838495E3,1.1377043E3,2.561442E3,1.3518677E2,1.084822E3,6.0122253E2,7.3723193E2,2.7548828E1,1.8164845E1,1.227544E3,7.9472644E2,1.20715454E2,1.6936893E2,3.561189E2,2.4921436E2,4.376831E0,6.426724E0,6.9626374E0,2.1050255E1,3.5713818E2,4.168151E2,3.5110724E2,2.3217975E2,2.444519E1,2.4196217E1,7.986444E1,2.5016052E1,2.509259E2,1.6731372E2,1.4339941E2,1.6527124E2,0E0,6.1166534E0,0E0,6.79649E0,0E0,5.5555553E0,1.2236824E1,1.1984484E1,7.021631E1,2.5729675E2,2.0269586E2,1.7785094E2,1.6576878E2,9.4161804E1,1.9709813E2,1.5870294E2,6.0700684E0,1.8701298E0,0E0,7.7094774E0,4.6656517E1,5.0285095E1,1.795593E1,1.6032356E1,5.4383408E1,4.2238678E1,9.051074E1,1.319867E2,3.4693604E1,1.3374536E2,1.12128174E2,6.832872E1,5.607376E0,0E0,6.6736107E0,3.5551949E0,3.2658734E0,0E0,6.765564E0,1.1140925E1,1.6055555E0,2.892857E0,3.745059E1,8.830859E1,6.945886E1,8.398311E1,1.2566376E2,5.5717216E1,7.5798004E1,4.9347275E1,9.751402E1,8.444851E1,7.259064E1,3.237323E1,4.026973E1,8.517319E1,4.7735054E1,4.4905365E1,7.979221E0,4.1610107E0,0E0,2.6666667E0,3.9277773E0,1.1382517E1,2.6356323E1,3.06641E0,0E0,3.6144653E1,7.7047615E0,1.4583467E1,9.066277E0,5.35E0,8.652593E1,5.4952606E1,2.0949997E1,3.1319838E1,2.6004112E1,2.9812893E1,7.010858E1,6.2992493E1,3.5815334E1,2.2747803E1,9.552818E1,9.412134E1,2.6668993E1,7.964111E1,1.567136E1,2.716941E1,3.4166667E0,5.5643616E0,0E0,4.375E0,0E0,1.5833334E0,1.2261901E0,1.9285715E0,5.78273E0,8.092805E0,5.7015486E0,7.7618575E0,1E0,0E0,1.5833334E0,0E0,2.2752813E1,1.2823845E1,3.511377E1,8.52666E1,1.6169598E2,6.048401E1,8.497548E1,4.303536E1,3.749829E1,8.55441E1,1.3946075E1,3.5290848E1,6.0215637E1,4.5448364E1,1.719712E1,4.1749077E1,2.5892195E1,4.3917847E1,3.299963E1,7.8174126E1,2.9620972E1,4.858716E1,9.524597E0,3.0096924E1,2.431224E1,1.0613495E1,5.5105392E1,5.4185318E1,2.6521782E1,4.0291695E1,2.156672E1,2.5065308E1,0E0,0E0,7.687988E-1,1.4061207E1,0E0,0E0,0E0,1.5833334E0,6.178979E0,6.029762E0,3.1286436E1,1.0483791E1,8.324928E-1,2.6666667E0,3.5714752E1,1.8525528E1,6.021429E0,2.2E0,0E0,1.2250456E1,7.6338425E0,1.0875816E1,0E0,0E0,2.2148117E1,4.7480072E1,3.3747944E1,2.8150696E1,1.211972E1,3.0810406E1,1.5506823E1,1.3568209E1,8.470254E0,2.6097778E1,2.4781876E0,1.6407984E1,4.2815308E1,1.31249695E1,5.184848E1,4.830426E1,1.3729492E1,3.7479073E1,1.820227E1,1.7436928E1,4.9361294E1,4.160295E1,7.389307E1,7.982188E1,1.5542593E1,9.88547E0,6.681186E1,3.558789E1,1.1428571E0,1.4516602E1,1.6934776E0,1.1951764E1,0E0,0E0,0E0,0E0,0E0,0E0,0E0,0E0,0E0,0E0,0E0,0E0,0E0,0E0,0E0,0E0,0E0,0E0,0E0,0E0,0E0,0E0,0E0,0E0,0E0,0E0,0E0,0E0,0E0,0E0,0E0,0E0,0E0,0E0,0E0,0E0,0E0,0E0,0E0,0E0,0E0,0E0,0E0,0E0,0E0,0E0,0E0,0E0,0E0,0E0,0E0,0E0,0E0,0E0,0E0,0E0,0E0,0E0,0E0,0E0,0E0,0E0,0E0,0E0,0E0,0E0,0E0,0E0,0E0,0E0,0E0,0E0,0E0,0E0,0E0,0E0,0E0,0E0,0E0,0E0,0E0,0E0,0E0,0E0,0E0,0E0,0E0,0E0,0E0,0E0,0E0,0E0,0E0,0E0,0E0,0E0,0E0,0E0,0E0,0E0,0E0,0E0,0E0,0E0,0E0,0E0,0E0,0E0,0E0,0E0,0E0,0E0,0E0,0E0,0E0,0E0,0E0,0E0,0E0,0E0,0E0,0E0,0E0,0E0,0E0,0E0,0E0,0E0,0E0,0E0,0E0,0E0,0E0,0E0,0E0,0E0,0E0,0E0,0E0,0E0,0E0,0E0,0E0,0E0,0E0,0E0,0E0,0E0,0E0,0E0,0E0,0E0,0E0,0E0,0E0,0E0,0E0,0E0,0E0,0E0,0E0,0E0,0E0,0E0,0E0,0E0,0E0,0E0,0E0,0E0,0E0,0E0,0E0,0E0,0E0,0E0,0E0,0E0,0E0,0E0,0E0,0E0,0E0,0E0],"parents":[2147483647,0,0,1,1,2,2,3,3,4,4,5,5,6,6,7,7,8,8,9,9,10,10,11,11,12,12,13,13,14,14,15,15,16,16,17,17,18,18,19,19,20,20,21,21,22,22,23,23,24,24,25,25,26,26,27,27,28,28,29,29,30,30,32,32,34,34,36,36,37,37,38,38,39,39,40,40,41,41,42,42,43,43,44,44,45,45,46,46,47,47,48,48,50,50,51,51,52,52,53,53,54,54,55,55,56,56,57,57,58,58,59,59,60,60,61,61,62,62,63,63,65,65,66,66,67,67,69,69,70,70,71,71,72,72,73,73,74,74,75,75,76,76,77,77,78,78,79,79,80,80,81,81,82,82,83,83,84,84,85,85,86,86,87,87,88,88,89,89,90,90,92,92,93,93,94,94,95,95,96,96,98,98,99,99,100,100,101,101,102,102,103,103,104,104,105,105,106,106,107,107,108,108,109,109,110,110,111,111,112,112,113,113,114,114,115,115,116,116,117,117,118,118,119,119,120,120,122,122,124,124,125,125,126,126,127,127,128,128,129,129,130,130,131,131,133,133,135,135,136,136,137,137,138,138,139,139,140,140,141,141,142,142,143,143,144,144,145,145,146,146,147,147,148,148,149,149,150,150,151,151,152,152,153,153,154,154,155,155,156,156,157,157,158,158,159,159,160,160,161,161,162,162,163,163,164,164,165,165,166,166,169,169,170,170,174,174,175,175,176,176,177,177,178,178,179,179,180,180,181,181,182,182,183,183,184,184,186,186,187,187,188,188,191,191,192,192,193,193,194,194,195,195,196,196,197,197,198,198,199,199,200,200,201,201,202,202,203,203,204,204,205,205,206,206,207,207,208,208,209,209,210,210,211,211,212,212,213,213,214,214,215,215,216,216,217,217,218,218,219,219,220,220,221,221,222,222],"right_children":[2,4,6,8,10,12,14,16,18,20,22,24,26,28,30,32,34,36,38,40,42,44,46,48,50,52,54,56,58,60,62,-1,64,-1,66,-1,68,70,72,74,76,78,80,82,84,86,88,90,92,-1,94,96,98,100,102,104,106,108,110,112,114,116,118,120,-1,122,124,126,-1,128,130,132,134,136,138,140,142,144,146,148,150,152,154,156,158,160,162,164,166,168,170,-1,172,174,176,178,180,-1,182,184,186,188,190,192,194,196,198,200,202,204,206,208,210,212,214,216,218,220,222,224,226,-1,228,-1,230,232,234,236,238,240,242,244,-1,246,-1,248,250,252,254,256,258,260,262,264,266,268,270,272,274,276,278,280,282,284,286,288,290,292,294,296,298,300,302,304,306,308,310,-1,-1,312,314,-1,-1,-1,316,318,320,322,324,326,328,330,332,334,336,-1,338,340,342,-1,-1,344,346,348,350,352,354,356,358,360,362,364,366,368,370,372,374,376,378,380,382,384,386,388,390,392,394,396,398,400,402,404,406,-1,-1,-1,-1,-1,-1,-1,-1,-1,-1,-1,-1,-1,-1,-1,-1,-1,-1,-1,-1,-1,-1,-1,-1,-1,-1,-1,-1,-1,-1,-1,-1,-1,-1,-1,-1,-1,-1,-1,-1,-1,-1,-1,-1,-1,-1,-1,-1,-1,-1,-1,-1,-1,-1,-1,-1,-1,-1,-1,-1,-1,-1,-1,-1,-1,-1,-1,-1,-1,-1,-1,-1,-1,-1,-1,-1,-1,-1,-1,-1,-1,-1,-1,-1,-1,-1,-1,-1,-1,-1,-1,-1,-1,-1,-1,-1,-1,-1,-1,-1,-1,-1,-1,-1,-1,-1,-1,-1,-1,-1,-1,-1,-1,-1,-1,-1,-1,-1,-1,-1,-1,-1,-1,-1,-1,-1,-1,-1,-1,-1,-1,-1,-1,-1,-1,-1,-1,-1,-1,-1,-1,-1,-1,-1,-1,-1,-1,-1,-1,-1,-1,-1,-1,-1,-1,-1,-1,-1,-1,-1,-1,-1,-1,-1,-1,-1,-1,-1,-1,-1,-1,-1,-1,-1,-1,-1,-1,-1,-1,-1,-1,-1,-1,-1],"split_conditions":[1.1E0,6.016786E2,5.7312E2,3.8628E2,-4E-1,5.210764E2,2.6E0,3.54E2,1.69E2,1.6E1,1E0,3.8628E2,1E-1,-5E0,3.266793E3,9.12E1,-1.8E0,5E1,1.6E0,-1.7E0,-2.9E0,2.21E2,1.1E-1,4.67379E2,-5E-1,9.1012714E2,1.63488E2,2.22E2,9.489E2,6.4E1,2.28E2,-1.4555625E0,9.659258E-1,-1.7889E0,2.52E1,4.5509253E0,2.31E1,1.1E0,2.01E2,1.77E2,5E0,7.016425E2,6.123234E-17,2E2,8.375595E-1,8.0496E2,1E1,1.5612535E2,4.3388373E-1,2.7498E0,1.8025068E1,2.4049081E2,2.898E2,7.186939E2,2.762424E2,2.04E2,7.818315E-1,5.088E-1,1.67E2,1.4206601E1,1.2177385E3,2.3148E3,2.3E2,2.8690475E-1,4.4685373E0,7.5E1,2.21E2,2.6E1,1.6807503E0,3.0999989E1,9E1,6E0,8E1,2.66922E3,1.42075E3,2.22E2,1.1534222E2,2.4E1,5E2,2.3903572E1,9.6336E2,1.69E2,7.9152E2,1.6825428E3,1.290345E3,2.19E2,2.17E2,2.7767122E3,1.3149772E3,-5E-1,3.5230698E2,2.3694E0,2.2E0,4.6547619E-1,2.2574896E1,1E-1,1E0,9.89829E1,4.2E0,5.8E0,1.8243427E1,3.41E0,1.8E0,1.69E2,1.994E2,1.39702E3,-1.2E1,3.6636904E-1,4.3E1,2.1038472E2,2.8998657E3,1.8378E3,7.0710677E-1,1.6703192E2,1.03986E3,4.987261E3,1.406E2,3.6636904E-1,3.1E3,9.5E1,2.3E2,-1.6107E0,9E-2,3.9870006E-1,2.4E0,9.659258E-1,2.1E0,4.5119047E-1,2.32E2,3.7086536E1,7.4088E2,2.3E0,1.397025E0,4.6E0,-6.275625E-1,7.818315E-1,4.5714286E-1,-2.5881904E-1,7.9089284E-1,2E2,7.6869047E-1,1.8E0,1.53918E3,-5E0,1.87E2,1.4166667E-1,1.29E0,4.8E1,1.290345E3,4.8029763E-1,-1.4E0,1.61E2,2.0853174E3,9.8285645E2,2.196E2,2.26E2,3.8976E2,4.8095238E-1,1.72188E3,9.503046E2,6.0041666E-1,2.590107E1,4.3388373E-1,2.68848E3,1.406E2,4.580252E2,6.8E1,9.473399E0,-1.0230001E0,4.164405E2,2E0,2.6157E0,-1.9446001E0,-2.0109003E0,8E-1,1E-2,-2.2252093E-1,1.62E2,7.186939E2,9.749279E-1,3E0,8E0,-2.2252093E-1,9.749279E-1,-7.0710677E-1,-2.0952E0,5.5872E2,7.4E1,7.186939E2,-8.55E-1,2.1298876E1,1.0095834E0,1E-1,2.1823765E3,2.3242262E1,4.2196543E3,2.9345238E-1,2E3,2.471857E1,8.0496E2,1.75E2,8.4E1,1.6428572E-1,6.3744E3,3.077381E-1,8.32E1,2.8928572E-1,2.1E0,6.540777E2,1.53918E3,6.732172E1,2.2E-1,1.98E2,4.5E0,-2.5881904E-1,3.6298757E3,4.0535715E-1,3.888E1,1.025E3,5E-1,4.0297619E-1,-2.3E0,3.4848E3,-5.61E-1,5.22E-1,-1.565675E0,-7.37675E-1,-1.05525E0,8.910008E-2,-2.0064626E0,6.23625E-1,-5.0325E-1,-9.8775005E-1,-5.623501E-1,6.4875E-1,-1.734375E0,8.3444995E-1,-8.225625E-1,-2.2349937E0,-1.5489E0,1.9087501E-1,1.2939E0,-1.4112313E0,-4.002975E0,1.9070247E0,2.6841E0,-1.7514E0,1.9725E-1,-1.4627751E0,-5.9453E0,2.9134E0,-2.445825E0,-2.6049564E0,-3.1563E0,-4.5336E0,-2.263725E0,-4.752E-1,-2.121E0,-3.4720497E0,-1.38945E0,-4.1354996E-1,-1.1223E0,4.869E-1,-5.81175E0,-2.637E0,2.8660002E-1,-1.8654E0,-1.10199E1,-2.3799E0,-2.4509752E0,5.241775E0,3.3539999E0,4.4077498E-1,-2.0425035E-2,6.4209375E0,-1.8523501E0,-9.0735006E-1,-1.26435E0,1.1608623E0,-1.5842501E0,1.7572502E0,-1.2087001E0,5.837475E0,6.7424995E-1,-9.2175007E-1,-6.354E-1,1.1943E0,-2.3775003E0,-1.5300001E0,-1.9527E0,1.8129002E0,-2.2035E0,7.532501E-2,-1.1295E0,-3.8055E0,-1.650375E-1,-7.8247505E-1,-4.5450002E-1,-1.6424999E0,3.363E-1,1.9289999E0,-1.3809E0,3.3929998E-1,4.6935E-1,-8.9250004E-1,1.0404376E0,5.5620375E0,-4.9456254E-1,1.278E0,6.2595E0,3.2517624E0,-1.4392501E0,-6.8909997E-1,1.7249994E-1,-6.4799994E-1,-4.599E-1,6.252E-1,-3.729E-1,1.1159251E0,3.6292502E-1,-1.1589001E0,-7.6080006E-1,5.055E-1,-1.3758E0,-1.1429997E-1,-1.7163E0,-1.7373002E0,3.4470007E-1,-4.9830005E-1,-7.7580005E-1,1.619997E-2,3.2819995E-1,-2.8514996E-1,-1.6155001E0,2.8155E0,-1.2435001E0,1.2989998E0,2.25585E0,-1.338525E0,3.3335998E0,1.3226875E0,-1.1181062E0,5.5264187E1,3.76035E0,1.4902251E0,5.3730005E-1,-1.0407E0,-8.8551253E-1,1.6112999E0,7.553988E0,2.1513002E0,-1.9491001E0,-5.2695003E0,-3.8184001E0,-6.813001E-1,2.1579626E0,-3.0549E0,-4.2685122E0,1.189625E0,1.228875E0,-2.5232506E-1,-1.0681877E-1,-9.4091254E-1,3.5832748E0,-1.027125E0,-1.8481879E-1,5.7824993E-1,2.5071E0,5.6530876E0,2.7010877E0,1.5013988E1,1.6197001E0,8.60675E-1,4.5413003E0,2.3451126E0,6.25605E0,2.534775E0,5.084525E0,-1.0853251E0,3.603375E0,8.870926E0,9.48075E-1,4.2735E0,-8.1332505E-1,4.2854986E-1,7.6425E-1,1.9342501E0,2.5263753E0,4.6074E0,-4.6751504E0,1.1738999E0,5.7820506E0,-1.5228001E0,2.7213001E0,-1.2969E0,8.11605E0,2.423475E0,9.864901E0,2.13873E1,3.7855133E1,4.017488E1,-2.6159698E1,1.9535711E1,1.210345E1,1.43967E1,3.9765E0,-9.639E-1],"split_indices":[25,23,22,22,25,23,25,40,15,31,31,22,36,31,23,43,25,17,2,25,25,15,36,40,19,23,40,15,22,30,15,0,18,0,24,0,24,29,15,15,31,40,19,15,37,22,31,41,20,0,32,41,22,23,41,15,20,40,15,32,23,22,15,35,0,4,15,31,0,33,4,12,30,22,23,15,41,31,11,43,22,15,22,23,23,15,15,23,23,18,41,0,3,35,32,2,18,0,25,25,33,6,6,15,9,9,31,37,30,41,23,22,19,41,9,23,9,37,10,4,15,0,6,0,3,18,3,35,15,33,22,2,0,2,0,20,35,19,37,15,37,3,23,25,15,35,36,30,23,37,25,15,41,23,9,15,9,35,22,23,37,33,20,22,9,40,30,0,0,40,13,0,0,0,3,6,21,15,23,20,13,12,21,20,19,0,22,4,23,0,0,37,5,23,32,23,35,10,43,22,15,4,35,22,35,9,35,3,41,23,43,6,15,25,19,23,35,9,10,29,35,29,22,0,0,0,0,0,0,0,0,0,0,0,0,0,0,0,0,0,0,0,0,0,0,0,0,0,0,0,0,0,0,0,0,0,0,0,0,0,0,0,0,0,0,0,0,0,0,0,0,0,0,0,0,0,0,0,0,0,0,0,0,0,0,0,0,0,0,0,0,0,0,0,0,0,0,0,0,0,0,0,0,0,0,0,0,0,0,0,0,0,0,0,0,0,0,0,0,0,0,0,0,0,0,0,0,0,0,0,0,0,0,0,0,0,0,0,0,0,0,0,0,0,0,0,0,0,0,0,0,0,0,0,0,0,0,0,0,0,0,0,0,0,0,0,0,0,0,0,0,0,0,0,0,0,0,0,0,0,0,0,0,0,0,0,0,0,0,0,0,0,0,0,0,0,0,0,0,0,0,0,0,0,0,0,0],"split_type":[0,0,0,0,0,0,0,0,0,0,0,0,0,0,0,0,0,0,0,0,0,0,0,0,0,0,0,0,0,0,0,0,0,0,0,0,0,0,0,0,0,0,0,0,0,0,0,0,0,0,0,0,0,0,0,0,0,0,0,0,0,0,0,0,0,0,0,0,0,0,0,0,0,0,0,0,0,0,0,0,0,0,0,0,0,0,0,0,0,0,0,0,0,0,0,0,0,0,0,0,0,0,0,0,0,0,0,0,0,0,0,0,0,0,0,0,0,0,0,0,0,0,0,0,0,0,0,0,0,0,0,0,0,0,0,0,0,0,0,0,0,0,0,0,0,0,0,0,0,0,0,0,0,0,0,0,0,0,0,0,0,0,0,0,0,0,0,0,0,0,0,0,0,0,0,0,0,0,0,0,0,0,0,0,0,0,0,0,0,0,0,0,0,0,0,0,0,0,0,0,0,0,0,0,0,0,0,0,0,0,0,0,0,0,0,0,0,0,0,0,0,0,0,0,0,0,0,0,0,0,0,0,0,0,0,0,0,0,0,0,0,0,0,0,0,0,0,0,0,0,0,0,0,0,0,0,0,0,0,0,0,0,0,0,0,0,0,0,0,0,0,0,0,0,0,0,0,0,0,0,0,0,0,0,0,0,0,0,0,0,0,0,0,0,0,0,0,0,0,0,0,0,0,0,0,0,0,0,0,0,0,0,0,0,0,0,0,0,0,0,0,0,0,0,0,0,0,0,0,0,0,0,0,0,0,0,0,0,0,0,0,0,0,0,0,0,0,0,0,0,0,0,0,0,0,0,0,0,0,0,0,0,0,0,0,0,0,0,0,0,0,0,0,0,0,0,0,0,0,0,0,0,0,0,0,0,0,0,0,0,0,0,0,0,0,0,0,0,0,0,0,0,0,0,0,0,0],"sum_hessian":[1.49858E5,8.4838E4,6.502E4,2.559E3,8.2279E4,5.406E3,5.9614E4,2.127E3,4.32E2,4.682E4,3.5459E4,1.685E3,3.721E3,2.7782E4,3.1832E4,2.092E3,3.5E1,3.4E1,3.98E2,3.2705E4,1.4115E4,1.8689E4,1.677E4,1.576E3,1.09E2,3.279E3,4.42E2,9.351E3,1.8431E4,2.3147E4,8.685E3,1.871E3,2.21E2,7E0,2.8E1,1.2E1,2.2E1,3.7E2,2.8E1,1.4397E4,1.8308E4,7.428E3,6.687E3,1.133E4,7.359E3,9.459E3,7.311E3,1.566E3,1E1,2.5E1,8.4E1,7.95E2,2.484E3,1.39E2,3.03E2,7.182E3,2.169E3,2.597E3,1.5834E4,3.92E3,1.9227E4,8.364E3,3.21E2,2.19E2,2E0,1.5E1,1.3E1,1.7E1,5E0,2.74E2,9.6E1,1.9E1,9E0,9.6E2,1.3437E4,1.1005E4,7.303E3,6.384E3,1.044E3,4.668E3,2.019E3,5.745E3,5.585E3,3.878E3,3.481E3,1.57E3,7.889E3,4.475E3,2.836E3,1E1,1.556E3,6E0,4E0,1.7E1,6.7E1,7.38E2,5.7E1,2.8E1,2.456E3,3.4E1,1.05E2,2.92E2,1.1E1,4.121E3,3.061E3,1.568E3,6.01E2,6.23E2,1.974E3,2.622E3,1.3212E4,5.87E2,3.333E3,4.501E3,1.4726E4,2.79E2,8.085E3,1.49E2,1.72E2,5E0,2.14E2,8E0,7E0,1E1,3E0,1.1E1,6E0,1.67E2,1.07E2,5.1E1,4.5E1,2E0,1.7E1,3E0,6E0,6.24E2,3.36E2,3.381E3,1.0056E4,6.101E3,4.904E3,5.186E3,2.117E3,2.262E3,4.122E3,1.76E2,8.68E2,2.905E3,1.763E3,4.08E2,1.611E3,6.18E2,5.127E3,6.18E2,4.967E3,1.274E3,2.604E3,5.07E2,2.974E3,1.252E3,3.18E2,5.574E3,2.315E3,2.807E3,1.668E3,7.66E2,2.07E3,4E0,6E0,1.526E3,3E1,2E0,2E0,1.4E1,3E0,4.4E1,2.3E1,6.48E2,9E1,5.3E1,4E0,2.119E3,3.37E2,2.9E1,5E0,9E0,9.6E1,2.76E2,1.6E1,9E0,2E0,8.53E2,3.268E3,7.63E2,2.298E3,8.22E2,7.46E2,2.11E2,3.9E2,1.07E2,5.16E2,8.7E1,1.887E3,1.889E3,7.33E2,7.98E3,5.232E3,3.71E2,2.16E2,2.96E3,3.73E2,9.33E2,3.568E3,1.388E4,8.46E2,1.5E2,1.29E2,1.639E3,6.446E3,8E0,1.41E2,5E1,1.22E2,2E0,3E0,1.77E2,3.7E1,2E0,5E0,2E0,1E0,6E0,5E0,3E0,3E0,1.63E2,4E0,8.3E1,2.4E1,4.1E1,1E1,3.5E1,1E1,1E0,1E0,2E0,1E0,4.14E2,2.1E2,3.05E2,3.1E1,1.189E3,2.192E3,5.715E3,4.341E3,4.354E3,1.747E3,1.466E3,3.438E3,3.034E3,2.152E3,2.85E2,1.832E3,4.88E2,1.774E3,1.374E3,2.748E3,3.9E1,1.37E2,6.8E1,8E2,5.89E2,2.316E3,2.27E2,1.536E3,1.09E2,2.99E2,9.23E2,6.88E2,5.7E1,5.61E2,5.079E3,4.8E1,9.6E1,5.22E2,1.298E3,3.669E3,4.69E2,8.05E2,2.189E3,4.15E2,4.92E2,1.5E1,7.65E2,2.209E3,3.38E2,9.14E2,2.4E1,2.94E2,3.342E3,2.232E3,1.044E3,1.271E3,2.27E3,5.37E2,9.28E2,7.4E2,1.76E2,5.9E2,1.392E3,6.78E2,1.522E3,4E0,5E0,2.5E1,1E0,2E0,8E0,3.6E1,6E0,1.7E1,8.7E1,5.61E2,5.1E1,3.9E1,4.3E1,1E1,2E0,2E0,1.925E3,1.94E2,1.11E2,2.26E2,2.7E1,2E0,1E0,4E0,8.1E1,1.5E1,2.03E2,7.3E1,8E0,8E0,3.08E2,5.45E2,1.813E3,1.455E3,3.33E2,4.3E2,3.55E2,1.943E3,5.58E2,2.64E2,2.33E2,5.13E2,2.4E1,1.87E2,4.1E1,3.49E2,4.4E1,6.3E1,1.4E2,3.76E2,8.6E1,1E0,4.32E2,1.455E3,1.575E3,3.14E2,6E1,6.73E2,4.327E3,3.653E3,3.474E3,1.758E3,2.13E2,1.58E2,1.16E2,1E2,1.676E3,1.284E3,2.68E2,1.05E2,4.49E2,4.84E2,2.247E3,1.321E3,8.68E3,5.2E3,2.82E2,5.64E2,1.6E1,1.34E2,1.16E2,1.3E1,3.67E2,1.272E3,5.432E3,1.014E3,6E0,2E0,1.34E2,7E0,2E0,4.8E1,2.7E1,9.5E1],"tree_param":{"num_deleted":"0","num_feature":"44","num_nodes":"407","size_leaf_vector":"1"}},{"base_weights":[-5.3141E-3,-1.9877297E-1,2.4642742E-1,-9.3814945E-1,-1.806743E-1,-3.869356E-1,3.0384526E-1,-9.7329974E-1,4.864865E-2,-1.09143876E-1,-3.4309027E-1,-9.0106636E-1,-1.5334947E-1,2.1521491E-1,5.1477176E-1,-4.997159E-2,-7.654867E-1,-2.7116317E-1,1.851743E-3,-4.3057093E-1,-1.2255996E-1,-9.7268105E-1,8.695652E-2,5.672727E-1,-2.1086262E-1,9.179289E-2,3.1359452E-1,2.695599E-1,6.092866E-1,-8.101852E-1,1.8181819E-1,-5.09213E-1,-1.8096308E-1,-1.4759639E-1,1.1283548E-1,-8.2885645E-2,-4.5755336E-1,-3.36248E-1,1.1473963E-1,-9.8367083E-1,-5.681818E-1,8.333333E-1,-1.744186E-1,3.106796E-1,7.16763E-1,-2.7047068E-1,3.3040935E-1,3.7526295E-1,5.0301686E-2,3.3112493E-1,-1.4203233E-1,1.1092605E-1,5.1914E-1,6.463048E-1,3.1333804E-1,-8.428571E-1,2.857143E-1,-2.857143E-1,4.0000003E-2,-1.4795588E-1,-6.2356085E-1,-4.1438302E-1,-4.1824017E-2,-2.93438E-1,-8.009684E-2,5.522361E-3,2.5262412E-1,2.2319475E-1,-2.4793388E-1,-7.9221857E-1,-4.3155393E-1,-4.1375968E-1,1.767305E-2,2.8099173E-1,-2.325159E-1,-4.375E-1,-9.887863E-1,7E-1,-9.142857E-1,-2.5E-1,4.814815E-2,-2.4691358E-1,4.1666668E-2,6.938776E-1,-3.6363635E-2,7.7272725E-1,2.5E-1,-3.2942513E-1,6.9716774E-2,1.4693877E-1,7.8571427E-1,2.2687048E-1,5.3744495E-1,8.510638E-2,-1.846374E-1,1.0346125E-1,3.6161953E-1,-3.15331E-1,1.9795223E-1,-9.0273365E-2,3.3216783E-1,3.1448275E-1,6.441251E-1,5.950602E-1,7.872552E-1,-4.659091E-1,3.6466166E-1,-8.682927E-1,1.6666667E-1,4.0000003E-2,-3.3333335E-2,3.3333335E-2,-4.0000003E-2,2.173913E-2,-3.6976048E-1,-5.4803103E-1,-7.9048246E-1,-4.983271E-1,-6.812652E-2,4.0432345E-2,-2.4072282E-1,-4.2089662E-1,-1.11169934E-1,-4.2384106E-1,-5.1752374E-2,4.331352E-1,-5.3808887E-2,1.0987186E-1,3.9357713E-1,4.9473684E-2,2.2038568E-2,-6.2903225E-1,-1.4048338E-1,-8.444004E-1,-5.25E-1,-1.4384615E-1,-4.577376E-1,-5.082051E-1,-2.528335E-1,-2.6478875E-1,3.2615384E-1,-4.2379183E-1,3.741999E-1,-3.2230523E-1,2.7878788E-1,-7.692308E-1,3.75E-2,-9.9007934E-1,-4E-1,-2.5E-2,4.4444446E-2,-4.8529413E-2,2.5E-2,2.5E-2,-3.3333335E-2,-4.3636364E-1,1.4814815E-1,1.1764706E-1,4.848485E-2,-2.75E-1,5.625E-1,2.5E-1,8.111888E-1,-3.6363637E-1,4.4999998E-2,-5.5160142E-2,-4.0326452E-1,-3.2828283E-2,7.03125E-1,-4.390244E-1,2.6341462E-1,-0E0,8.369565E-1,-3.821656E-2,3.8809833E-1,4.5302445E-1,7.18663E-1,-7.567305E-2,1.5122195E-1,-4.163793E-1,1.0245464E-1,5.202109E-1,-1.00478465E-2,7.2888285E-1,3.474869E-1,-4.1791046E-1,1.4150943E-1,-5.319149E-3,5.566038E-1,-7.380952E-1,-3.383978E-2,6.5913373E-1,1.388889E-1,1.3166144E-1,4.5700246E-1,3.5314685E-1,7.3608017E-1,4.8609313E-1,6.5962756E-1,8.1219167E-1,3.806818E-1,2.962963E-1,-7.903226E-1,1.025E-1,4.7690654E-1,2.5E-2,-4.387255E-2,-3.3333335E-2,3.75E-2,-2.9202278E-3,1.734104E-2,1.6025642E-3,-2.4561403E-2,-2.9588765E-2,-9.254144E-3,4.5833334E-2,-4.1576456E-2,-1.2215133E-2,-2.8406525E-2,-5.695652E-3,2.797619E-2,-8.356546E-3,7.256122E-3,-4.695122E-2,-1.10834995E-2,-7.24234E-3,-2.3152499E-2,2.1290323E-2,-7.953891E-3,-3.952514E-2,-4.648241E-3,4.575417E-3,-5.3943167E-3,1.8324373E-2,3.766234E-2,-1.2779553E-2,2.5296232E-4,1.2844036E-2,-2.7519054E-4,1.0223325E-2,2.813055E-2,-1.127451E-2,5.9160306E-3,1.875E-2,-3.3519555E-2,1.3888889E-3,-1.5044249E-2,-1.6346155E-2,-4.358038E-2,-2.9838711E-2,2.0000001E-2,1.411043E-2,-1.0237259E-2,-2.1109212E-2,-3.384422E-2,2.4305556E-3,-2.7614832E-2,-1.7961783E-2,-1.1019284E-3,2.857143E-2,-1.9869708E-2,-1.6346155E-2,2.2445256E-2,-4.040404E-2,-9.941521E-3,7.987867E-3,2.8859062E-2,-2.029762E-2,1.9897958E-2,-2.3728814E-2,3.4579437E-2,-4.5454547E-2,-0E0,-4.9760766E-2,-4.1E-2,-3.75E-2,2.5E-2,1.4285715E-2,-2.6530612E-2,-1.5625E-2,3.75E-2,4.4444446E-2,-3.3333335E-2,-1.891892E-2,3.75E-2,4.6153847E-2,-3.75E-2,3.3333335E-2,-3.75E-2,4.1197184E-2,-2.5E-2,2.0000001E-2,-4.2857144E-2,2.1875E-2,-6.832298E-3,-2.2048518E-2,-4.8034936E-3,-4.388298E-3,4.761905E-2,4.3902438E-2,1.875E-2,-4.761905E-2,4.761905E-3,-1.4285715E-2,1.871345E-2,-3.75E-2,3.75E-2,4.375E-2,-0E0,-7.887324E-3,1.6239317E-2,-8.737865E-3,2.3695976E-2,2.6617376E-2,1.3502109E-2,3.9104477E-2,-8E-3,2.839296E-3,-8.717732E-3,-1.6602104E-4,9.259034E-3,-2.2207206E-2,9.803922E-3,-3.4455128E-3,2.2133758E-2,1.896104E-2,4.0540542E-2,-9.573171E-3,5.350118E-3,3.8091924E-2,-3.529412E-2,1.4981093E-2,2.1830035E-2,-6.097561E-4,-2.5128866E-2,-1.5625E-2,2.542373E-2,-3.3333335E-2,5.2469135E-3,-9.09091E-3,3.1770837E-2,-3.893443E-2,2.0000001E-2,2.4638912E-3,-1.9669117E-2,4.3699734E-2,7.54717E-3,1.3129771E-2,-9.552846E-3,3.25E-2,5.769231E-4,1.1813187E-2,3.163717E-2,2.8385416E-2,-4.2105266E-3,3.081511E-2,4.431818E-2,3.478261E-2,2.1155462E-2,2.8698672E-2,4.0437303E-2,3.309266E-2,4.37002E-2,4.7457628E-2,4.661017E-3,4.4999998E-2,-2.7777778E-3,-4.375E-2,-0E0,2.6900584E-2,-1.1086957E-2,4.7244094E-3,2.6832297E-2],"categories":[],"categories_nodes":[],"categories_segments":[],"categories_sizes":[],"default_left":[0,0,0,0,0,0,0,1,0,0,0,0,0,0,0,0,0,0,0,0,1,1,0,0,0,0,0,0,0,0,0,0,0,0,0,0,0,0,0,0,0,0,0,0,0,0,0,0,0,0,0,0,0,0,0,0,0,0,0,0,0,0,0,0,0,0,0,0,0,1,0,0,0,0,0,0,0,0,0,0,0,0,0,0,0,0,0,0,0,0,0,0,0,0,0,0,0,0,1,0,0,0,0,0,0,0,0,0,0,0,0,0,0,0,0,1,0,0,1,0,0,0,0,0,0,1,0,0,0,0,0,0,0,0,0,0,0,0,0,0,0,0,0,1,0,0,0,1,0,0,0,0,0,0,0,0,0,0,0,0,0,0,0,1,0,0,0,0,0,0,0,0,1,0,0,0,0,0,0,0,1,0,0,0,0,0,0,0,0,0,0,0,0,0,0,0,0,0,1,0,0,0,0,0,0,0,0,0,0,0,0,0,0,0,0,0,0,0,0,0,0,0,0,0,0,0,0,0,0,0,0,0,0,0,0,0,0,0,0,0,0,0,0,0,0,0,0,0,0,0,0,0,0,0,0,0,0,0,0,0,0,0,0,0,0,0,0,0,0,0,0,0,0,0,0,0,0,0,0,0,0,0,0,0,0,0,0,0,0,0,0,0,0,0,0,0,0,0,0,0,0,0,0,0,0,0,0,0,0,0,0,0,0,0,0,0,0,0,0,0,0,0,0,0,0,0,0,0,0,0,0,0,0,0,0,0,0,0,0,0,0,0,0,0,0,0,0,0,0,0,0,0,0,0,0,0,0,0,0,0,0,0,0,0,0,0,0,0,0,0,0,0,0],"id":2,"left_children":[1,3,5,7,9,11,13,15,-1,17,19,21,23,25,27,-1,29,31,33,35,37,39,41,43,45,47,49,51,53,55,57,59,61,63,65,67,69,71,73,75,77,79,81,83,85,87,89,91,93,95,97,99,101,103,105,107,109,111,-1,113,115,117,119,121,123,125,127,129,131,133,135,137,139,141,143,145,147,149,151,153,-1,155,-1,157,159,161,163,165,167,169,171,173,175,177,179,181,183,185,187,189,191,193,195,197,199,201,203,205,207,-1,-1,-1,-1,209,211,213,215,217,219,221,223,225,227,229,231,233,235,237,239,-1,241,243,245,247,249,251,253,255,257,259,261,263,265,267,269,271,-1,273,275,-1,-1,-1,-1,-1,-1,277,279,281,-1,283,285,287,289,291,-1,293,295,297,299,301,303,305,307,309,311,313,315,317,319,321,323,325,327,329,331,333,335,337,339,341,343,345,347,349,351,353,355,357,359,361,363,365,367,369,371,-1,-1,-1,-1,-1,-1,-1,-1,-1,-1,-1,-1,-1,-1,-1,-1,-1,-1,-1,-1,-1,-1,-1,-1,-1,-1,-1,-1,-1,-1,-1,-1,-1,-1,-1,-1,-1,-1,-1,-1,-1,-1,-1,-1,-1,-1,-1,-1,-1,-1,-1,-1,-1,-1,-1,-1,-1,-1,-1,-1,-1,-1,-1,-1,-1,-1,-1,-1,-1,-1,-1,-1,-1,-1,-1,-1,-1,-1,-1,-1,-1,-1,-1,-1,-1,-1,-1,-1,-1,-1,-1,-1,-1,-1,-1,-1,-1,-1,-1,-1,-1,-1,-1,-1,-1,-1,-1,-1,-1,-1,-1,-1,-1,-1,-1,-1,-1,-1,-1,-1,-1,-1,-1,-1,-1,-1,-1,-1,-1,-1,-1,-1,-1,-1,-1,-1,-1,-1,-1,-1,-1,-1,-1,-1,-1,-1,-1,-1,-1,-1,-1,-1,-1,-1,-1,-1,-1,-1,-1,-1,-1,-1,-1,-1,-1,-1,-1,-1],"loss_changes":[7.28591E3,1.131844E3,2.3642566E3,1.3671082E2,9.5928076E2,6.488488E2,1.1141924E3,1.0014648E1,0E0,1.0309547E3,4.870161E2,1.1952222E2,1.541716E2,5.0960413E2,4.0854785E2,0E0,9.716843E0,5.003584E2,5.643162E2,1.6954004E2,3.6371698E2,6.4381104E0,2.2580048E1,1.0325821E1,1.1117488E2,2.1895694E2,1.8659106E2,1.9425922E2,1.3923877E2,7.9747314E0,3.407792E0,2.6445044E2,5.48988E2,1.4270816E2,2.928812E2,6.5880325E1,1.4561035E2,1.0353955E2,1.9629628E2,3.8449707E0,1.9952599E1,4.453703E0,6.4886594E0,1.3722816E1,4.3259277E0,6.2235306E1,2.8453537E1,5.708435E1,1.3282628E2,1.5609961E2,5.1086166E1,1.3366017E2,4.8576782E1,8.123779E1,5.684108E1,5.5370483E0,3.9619048E0,3.9619048E0,0E0,5.800994E1,6.0889893E1,1.8346082E2,1.7330219E2,1.0651672E2,9.656287E1,2.8026923E2,1.7056573E2,7.0420975E1,3.459561E1,1.6401001E1,1.172041E2,4.692682E1,5.925037E1,1.5118353E2,5.0636353E1,6.8798075E0,7.581787E-1,2.711111E0,3.2722683E0,1.5833334E0,0E0,6.1270475E0,0E0,7.6737614E0,8.014772E0,2.8933563E0,8.304546E0,5.352289E1,2.9836458E1,1.6837032E1,3.9456558E0,5.313992E1,1.7038239E1,1.5039438E2,1.3949219E2,1.2574158E2,1.02687744E2,2.6958176E1,2.1363712E1,5.7482193E1,9.027818E1,1.8830162E1,3.1393524E1,5.8075684E1,3.023816E1,2.1993904E1,3.9088104E1,3.0076294E0,3.4166667E0,0E0,0E0,0E0,0E0,2.279079E1,3.261889E1,5.3109924E1,1.06782166E2,8.995642E1,3.5497597E1,1.628675E2,4.1022858E1,3.133963E1,4.866301E1,9.152286E1,7.366465E1,2.8440475E1,1.15235E2,7.1476105E1,1.3625232E2,0E0,8.677905E0,7.9751587E0,1.787531E1,1.3920837E1,1.3516937E1,3.3787987E1,1.1088208E2,4.7901E1,2.8159058E1,3.9591946E1,2.6200714E1,2.3094425E1,8.8312805E1,5.6613983E1,5.1641464E1,1.3986015E0,0E0,5.046387E-1,1.95E0,0E0,0E0,0E0,0E0,0E0,0E0,3.89462E0,7.7199073E0,1.0875816E1,0E0,4.5222974E0,8.264423E0,5.5E0,2.803505E0,4.488312E0,0E0,2.262117E1,2.4085083E1,2.1517128E1,3.3441315E0,1.1335655E1,1.258597E1,4.5E0,2.9293442E0,2.0487785E1,3.742254E1,1.1134171E1,2.0132416E1,5.3902702E1,5.2612457E1,1.9812637E1,5.465934E1,2.3005432E1,4.440107E1,3.5243896E1,8.133911E1,1.6104324E1,1.7819096E1,1.3778631E1,6.2844315E0,6.132553E0,4.3291874E1,5.78481E1,3.6784977E1,1.9854836E1,1.5639183E1,2.6886059E1,1.5618317E1,4.051648E1,6.60686E1,2.5794434E1,2.8672285E1,5.7851853E0,4.149193E0,5.660327E1,2.1218414E1,0E0,0E0,0E0,0E0,0E0,0E0,0E0,0E0,0E0,0E0,0E0,0E0,0E0,0E0,0E0,0E0,0E0,0E0,0E0,0E0,0E0,0E0,0E0,0E0,0E0,0E0,0E0,0E0,0E0,0E0,0E0,0E0,0E0,0E0,0E0,0E0,0E0,0E0,0E0,0E0,0E0,0E0,0E0,0E0,0E0,0E0,0E0,0E0,0E0,0E0,0E0,0E0,0E0,0E0,0E0,0E0,0E0,0E0,0E0,0E0,0E0,0E0,0E0,0E0,0E0,0E0,0E0,0E0,0E0,0E0,0E0,0E0,0E0,0E0,0E0,0E0,0E0,0E0,0E0,0E0,0E0,0E0,0E0,0E0,0E0,0E0,0E0,0E0,0E0,0E0,0E0,0E0,0E0,0E0,0E0,0E0,0E0,0E0,0E0,0E0,0E0,0E0,0E0,0E0,0E0,0E0,0E0,0E0,0E0,0E0,0E0,0E0,0E0,0E0,0E0,0E0,0E0,0E0,0E0,0E0,0E0,0E0,0E0,0E0,0E0,0E0,0E0,0E0,0E0,0E0,0E0,0E0,0E0,0E0,0E0,0E0,0E0,0E0,0E0,0E0,0E0,0E0,0E0,0E0,0E0,0E0,0E0,0E0,0E0,0E0,0E0,0E0,0E0,0E0,0E0,0E0,0E0,0E0,0E0,0E0,0E0,0E0,0E0,0E0,0E0,0E0,0E0,0E0],"parents":[2147483647,0,0,1,1,2,2,3,3,4,4,5,5,6,6,7,7,9,9,10,10,11,11,12,12,13,13,14,14,16,16,17,17,18,18,19,19,20,20,21,21,22,22,23,23,24,24,25,25,26,26,27,27,28,28,29,29,30,30,31,31,32,32,33,33,34,34,35,35,36,36,37,37,38,38,39,39,40,40,41,41,42,42,43,43,44,44,45,45,46,46,47,47,48,48,49,49,50,50,51,51,52,52,53,53,54,54,55,55,56,56,57,57,59,59,60,60,61,61,62,62,63,63,64,64,65,65,66,66,67,67,68,68,69,69,70,70,71,71,72,72,73,73,74,74,75,75,76,76,77,77,78,78,79,79,81,81,83,83,84,84,85,85,86,86,87,87,88,88,89,89,90,90,91,91,92,92,93,93,94,94,95,95,96,96,97,97,98,98,99,99,100,100,101,101,102,102,103,103,104,104,105,105,106,106,107,107,108,108,113,113,114,114,115,115,116,116,117,117,118,118,119,119,120,120,121,121,122,122,123,123,124,124,125,125,126,126,127,127,128,128,130,130,131,131,132,132,133,133,134,134,135,135,136,136,137,137,138,138,139,139,140,140,141,141,142,142,143,143,144,144,145,145,147,147,148,148,155,155,156,156,157,157,159,159,160,160,161,161,162,162,163,163,165,165,166,166,167,167,168,168,169,169,170,170,171,171,172,172,173,173,174,174,175,175,176,176,177,177,178,178,179,179,180,180,181,181,182,182,183,183,184,184,185,185,186,186,187,187,188,188,189,189,190,190,191,191,192,192,193,193,194,194,195,195,196,196,197,197,198,198,199,199,200,200,201,201,202,202,203,203,204,204],"right_children":[2,4,6,8,10,12,14,16,-1,18,20,22,24,26,28,-1,30,32,34,36,38,40,42,44,46,48,50,52,54,56,58,60,62,64,66,68,70,72,74,76,78,80,82,84,86,88,90,92,94,96,98,100,102,104,106,108,110,112,-1,114,116,118,120,122,124,126,128,130,132,134,136,138,140,142,144,146,148,150,152,154,-1,156,-1,158,160,162,164,166,168,170,172,174,176,178,180,182,184,186,188,190,192,194,196,198,200,202,204,206,208,-1,-1,-1,-1,210,212,214,216,218,220,222,224,226,228,230,232,234,236,238,240,-1,242,244,246,248,250,252,254,256,258,260,262,264,266,268,270,272,-1,274,276,-1,-1,-1,-1,-1,-1,278,280,282,-1,284,286,288,290,292,-1,294,296,298,300,302,304,306,308,310,312,314,316,318,320,322,324,326,328,330,332,334,336,338,340,342,344,346,348,350,352,354,356,358,360,362,364,366,368,370,372,-1,-1,-1,-1,-1,-1,-1,-1,-1,-1,-1,-1,-1,-1,-1,-1,-1,-1,-1,-1,-1,-1,-1,-1,-1,-1,-1,-1,-1,-1,-1,-1,-1,-1,-1,-1,-1,-1,-1,-1,-1,-1,-1,-1,-1,-1,-1,-1,-1,-1,-1,-1,-1,-1,-1,-1,-1,-1,-1,-1,-1,-1,-1,-1,-1,-1,-1,-1,-1,-1,-1,-1,-1,-1,-1,-1,-1,-1,-1,-1,-1,-1,-1,-1,-1,-1,-1,-1,-1,-1,-1,-1,-1,-1,-1,-1,-1,-1,-1,-1,-1,-1,-1,-1,-1,-1,-1,-1,-1,-1,-1,-1,-1,-1,-1,-1,-1,-1,-1,-1,-1,-1,-1,-1,-1,-1,-1,-1,-1,-1,-1,-1,-1,-1,-1,-1,-1,-1,-1,-1,-1,-1,-1,-1,-1,-1,-1,-1,-1,-1,-1,-1,-1,-1,-1,-1,-1,-1,-1,-1,-1,-1,-1,-1,-1,-1,-1,-1],"split_conditions":[1.1E0,2.898E2,5.7312E2,6.016786E2,2.21E2,5.210764E2,1.8613227E5,5.9529892E1,6.745168E1,-1.2E0,2.33E2,3.8628E2,-2.5881904E-1,2.5E0,1.6703192E2,-1.3822219E0,2.5823078E1,1.7551332E1,8.654694E4,8E0,2.0634666E1,3.457634E2,-5E-1,7.186939E2,1.8613227E5,1.67E2,2.28E2,2.447497E3,2.21E2,1.4E0,2.22E2,1.77E2,1.3571429E-1,1.3020414E3,1.99E2,1.3397256E3,1.0435E4,3.5E0,1.07E2,1.7788857E2,5E1,4E-1,6E0,1.64E2,5.5872E2,4.2E0,8.032382E2,2.31E1,2.28E2,9.489E2,2.34E2,6.660595E1,2.3E0,3.2896362E1,2.25E2,2.94E1,2.68E1,1.5E0,2.6398373E-1,4.3388373E-1,9.8493E4,2E2,6.123234E-17,3.2E-1,1.382464E4,1.69E2,1.8613227E5,3.80304E3,2.6701E4,2.6705357E1,2E3,2.4741697E1,2.447497E3,1.2820532E3,8.4E1,2.9877579E1,4.5E0,2.16E1,1.36E0,2.4E1,2.5313098E0,4.2142856E-1,1.3690537E0,2.4860502E1,2.5E0,1.63E2,3.7E-1,7.7E1,7.5E0,2.1309523E-1,2E-1,1.5231E3,6.851341E4,1.5473314E3,2.33E2,4.42598E4,5E2,7.437825E4,5.841878E1,1.01352216E3,1.73E2,2.31697E1,6.777964E1,2.3E0,9.4E1,1.0633055E3,2.31697E1,1.3277471E1,2E0,7.3548245E-1,-8.5699505E-1,1.7233376E-1,-3.196663E-1,1.26E2,2.9E1,3.0144308E2,1.719637E1,1.91E2,5E2,3.263929E4,3.97552E3,6.9E1,5.9994E2,4.2E1,6.9E1,2.775075E2,1.4166667E-1,6.123234E-17,9.310504E2,2.0736401E2,2.3763126E1,6.1236E2,2.2E0,2.94892E1,4.008585E1,1.88184E3,3.2986794E5,6.587905E0,7.437825E4,4.203526E4,2.4104136E1,5.768493E4,6.6E1,1.025E3,1.3487E4,2.53E1,3.9597306E0,1.3406781E2,8.6E1,-5.0159997E-1,1.2487488E-1,-7.836E-1,1.5066149E0,1.5443099E0,-9.0690136E-2,1.3E0,3E-1,2.9E1,1.8577127E0,4.2142856E-1,4.5119047E-1,1.6E0,2.5486279E1,3.134025E1,5.278966E0,5.4E1,1.6206344E3,2.0750178E3,1.5E0,2.16E1,1.87E1,1.87E1,6.8509026E1,5.74601E4,2.791529E4,1.09E2,4.59422E3,8E1,1.9409622E1,9.6E1,3.3725716E1,5.6E0,7.995378E4,3.02E1,2.78496E3,2.84E1,1.4E0,9.7776E2,1.4023407E3,2.92E1,1.9939114E3,1.6963082E3,2.9642856E-1,1.7E2,1.0632875E2,2.5357142E-1,4.2E0,1.69E2,8.734276E1,9.691584E2,7.2E-1,7.1E1,5.1E0,2.0077759E3,2.2202381E-1,2.8168383E-1,-1.1402787E0,-6.5585655E-1,2.4553375E-1,-4.517625E-1,2.6016338E0,3.3086377E-1,-2.0395858E0,-2.7355652E0,-1.6113636E0,3.6666218E1,-1.1459578E1,-1.28088E0,-3.2987008E0,-7.2573E-1,1.1353362E1,-7.8043E-1,1.43677E0,-1.8901023E0,-1.1125275E0,-4.3668786E-1,-1.0937138E0,1.6178455E0,-5.3106755E-1,-1.2828751E0,-3.0841503E-1,5.79405E-1,-5.71815E-1,2.4954374E0,9.949535E0,-1.585358E0,4.4317435E-2,1.9714886E0,-2.3662472E-2,1.8177975E0,4.0835853E0,-7.326465E0,1.418115E0,1.7820005E-1,-2.824125E0,3.0921003E-1,-3.5412223E0,-1.0807219E0,-3.7952251E0,-1.5660913E0,1.5979218E-1,1.2432038E0,-1.6959676E0,-2.3590925E0,-6.5192246E0,5.9147257E-1,-2.9133976E0,-2.083095E0,-3.5493246E-1,2.239024E0,-3.1449468E0,-1.4133226E0,5.4581027E0,-1.9014568E0,-5.8474255E-1,1.3657837E0,7.7099166E0,-2.1376023E0,5.023515E0,-1.8417844E0,5.7019954E0,-7.3185E-1,3.8687215E0,-1.3672875E0,-1.3522875E0,-1.4092876E0,8.171254E-2,6.491995E-2,-8.4787124E-1,-4.36905E-1,1.2589537E0,6.476693E0,-3.9630723E-1,-5.6165254E-1,4.4800758E-1,1.9852136E0,-1.1119925E0,6.70505E-1,-6.990801E-1,6.7150574E0,-2.4441014E-1,1.8009957E0,-3.551349E0,6.65925E-1,-3.0501E-1,-7.302475E-1,-1.1301003E-1,-1.6154252E-1,2.3893235E0,1.7116575E0,1.89942E0,-1.0162426E0,2.628751E-2,-2.075551E-1,4.94445E-1,-1.1077509E-1,9.41415E-1,2.751225E0,6.0763826E0,-4.2537758E-1,1.4275602E0,-7.7676743E-1,2.9530828E0,3.6669285E0,1.7225828E0,1.1620345E1,-2.3026052E0,2.2141877E-1,-5.9731877E-1,-3.858123E-2,1.3652552E0,-2.292045E0,8.57955E-1,-3.4988126E-1,4.1195917E0,1.81875E0,2.9156342E0,-5.534625E-1,4.4725323E-1,7.24368E0,-4.339294E0,1.9259285E0,4.573605E0,-2.5999507E-1,-4.0078278E0,-6.1703954E0,3.5753877E0,-2.3200688E0,6.1518747E-1,-1.9257012E-1,4.462119E0,-1.5681337E0,2.6741757E0,2.0429592E-1,-2.6785495E0,6.3333316E0,1.8398011E0,2.4185326E0,-1.0740213E0,6.98517E0,4.5361003E-1,2.235475E0,9.852435E0,6.1987267E0,-1.0231744E0,8.723655E0,1.4249656E1,7.357867E0,3.104235E0,3.9457536E0,1.5667155E1,1.4599139E1,1.34784155E1,2.8216875E0,3.2668516E-1,1.4391467E1,-1.0319556E0,-1.1271781E1,-2.7407556E0,3.74433E0,-2.9062226E0,7.5260305E-1,4.273048E0],"split_indices":[25,22,22,23,15,23,7,43,0,25,15,22,19,25,41,0,32,32,7,0,43,41,19,23,7,15,15,23,15,36,15,15,35,23,15,41,8,3,17,41,17,5,25,15,22,25,23,1,15,22,15,43,25,33,15,1,24,3,0,20,8,15,19,36,7,15,7,22,8,43,10,32,23,23,0,33,27,1,6,1,0,35,0,33,28,15,36,30,25,35,28,23,8,23,15,7,10,8,41,23,15,32,41,25,0,41,32,32,3,0,0,0,0,17,0,41,43,15,11,8,8,30,22,0,30,43,35,19,41,0,32,22,28,41,33,22,7,43,8,7,32,7,17,10,8,24,0,43,0,0,0,0,0,0,0,25,29,0,0,35,35,3,32,43,0,30,23,23,28,24,1,1,41,8,7,17,22,30,32,0,43,25,7,24,22,1,3,22,23,24,23,23,35,15,41,35,25,15,43,41,6,30,28,23,35,0,0,0,0,0,0,0,0,0,0,0,0,0,0,0,0,0,0,0,0,0,0,0,0,0,0,0,0,0,0,0,0,0,0,0,0,0,0,0,0,0,0,0,0,0,0,0,0,0,0,0,0,0,0,0,0,0,0,0,0,0,0,0,0,0,0,0,0,0,0,0,0,0,0,0,0,0,0,0,0,0,0,0,0,0,0,0,0,0,0,0,0,0,0,0,0,0,0,0,0,0,0,0,0,0,0,0,0,0,0,0,0,0,0,0,0,0,0,0,0,0,0,0,0,0,0,0,0,0,0,0,0,0,0,0,0,0,0,0,0,0,0,0,0,0,0,0,0,0,0,0,0,0,0,0,0,0,0,0,0,0,0,0,0,0,0,0,0],"split_type":[0,0,0,0,0,0,0,0,0,0,0,0,0,0,0,0,0,0,0,0,0,0,0,0,0,0,0,0,0,0,0,0,0,0,0,0,0,0,0,0,0,0,0,0,0,0,0,0,0,0,0,0,0,0,0,0,0,0,0,0,0,0,0,0,0,0,0,0,0,0,0,0,0,0,0,0,0,0,0,0,0,0,0,0,0,0,0,0,0,0,0,0,0,0,0,0,0,0,0,0,0,0,0,0,0,0,0,0,0,0,0,0,0,0,0,0,0,0,0,0,0,0,0,0,0,0,0,0,0,0,0,0,0,0,0,0,0,0,0,0,0,0,0,0,0,0,0,0,0,0,0,0,0,0,0,0,0,0,0,0,0,0,0,0,0,0,0,0,0,0,0,0,0,0,0,0,0,0,0,0,0,0,0,0,0,0,0,0,0,0,0,0,0,0,0,0,0,0,0,0,0,0,0,0,0,0,0,0,0,0,0,0,0,0,0,0,0,0,0,0,0,0,0,0,0,0,0,0,0,0,0,0,0,0,0,0,0,0,0,0,0,0,0,0,0,0,0,0,0,0,0,0,0,0,0,0,0,0,0,0,0,0,0,0,0,0,0,0,0,0,0,0,0,0,0,0,0,0,0,0,0,0,0,0,0,0,0,0,0,0,0,0,0,0,0,0,0,0,0,0,0,0,0,0,0,0,0,0,0,0,0,0,0,0,0,0,0,0,0,0,0,0,0,0,0,0,0,0,0,0,0,0,0,0,0,0,0,0,0,0,0,0,0,0,0,0,0,0,0,0,0,0,0,0,0,0,0,0,0,0,0,0,0,0,0,0,0,0,0,0,0,0,0],"sum_hessian":[1.49601E5,8.4593E4,6.5008E4,2.02E3,8.2573E4,5.403E3,5.9605E4,1.984E3,3.6E1,5.7327E4,2.5246E4,1.687E3,3.716E3,4.1971E4,1.7634E4,1.759E3,2.25E2,2.3306E4,3.4021E4,1.8075E4,7.171E3,1.573E3,1.14E2,2.74E2,3.442E3,1.8617E4,2.3354E4,4.907E3,1.2727E4,2.15E2,1E1,6.403E3,1.6903E4,1.4498E4,1.9523E4,1.302E3,1.6773E4,3.773E3,3.398E3,1.53E3,4.3E1,2.9E1,8.5E1,1.02E2,1.72E2,3.101E3,3.41E2,2.376E3,1.6241E4,2.2489E4,8.65E2,3.001E3,1.906E3,1.1311E4,1.416E3,2.09E2,6E0,6E0,4E0,1.54E3,4.863E3,6.312E3,1.0591E4,4.586E3,9.912E3,1.1045E4,8.478E3,4.56E2,8.46E2,1.207E3,1.5566E4,3.095E3,6.78E2,2.298E3,1.1E3,1.5E1,1.515E3,9E0,3.4E1,3E0,2.6E1,8E1,5E0,4.8E1,5.4E1,1.53E2,1.9E1,2.643E3,4.58E2,2.44E2,9.7E1,1.242E3,1.134E3,1.4146E4,2.095E3,2.657E3,1.9832E4,5.73E2,2.92E2,1.572E3,1.429E3,7.24E2,1.182E3,8.299E3,3.012E3,8.7E1,1.329E3,2.04E2,5E0,4E0,2E0,2E0,4E0,8.73E2,6.67E2,3.351E3,1.512E3,5.08E3,1.232E3,7.493E3,3.098E3,2.698E3,1.888E3,7.54E2,9.158E3,1.345E3,9.7E3,4.213E3,4.265E3,9.4E1,3.62E2,1.85E2,6.61E2,1.008E3,1.99E2,1.299E3,1.4267E4,1.949E3,1.146E3,3.54E2,3.24E2,2.68E2,2.03E3,9.36E2,1.64E2,1.2E1,3E0,1.511E3,4E0,1E0,8E0,3.3E1,1E0,1E0,2E0,5.4E1,2.6E1,1.6E1,3.2E1,3.9E1,1.5E1,1.1E1,1.42E2,1E1,9E0,5.61E2,2.082E3,3.95E2,6.3E1,4E1,2.04E2,6E0,9.1E1,4.7E2,7.72E2,7.76E2,3.58E2,4.122E3,1.0024E4,1.159E3,9.36E2,5.68E2,2.089E3,7.33E2,1.9099E4,4.68E2,1.05E2,1.87E2,1.05E2,1.25E2,1.447E3,5.3E2,8.99E2,3.18E2,4.06E2,2.85E2,8.97E2,3.091E3,5.208E3,2.837E3,1.75E2,2.6E1,6.1E1,3.99E2,9.3E2,1E0,2.03E2,2E0,3E0,7.01E2,1.72E2,1.55E2,5.12E2,2.99E3,3.61E2,3.5E1,1.477E3,1.096E3,3.984E3,1.149E3,8.3E1,2.512E3,4.981E3,8.1E1,3.017E3,3.58E2,2.34E3,1.54E2,1.734E3,3.57E2,3.97E2,2.578E3,6.58E3,1.115E3,2.3E2,2.19E3,7.51E3,1.852E3,2.361E3,2.014E3,2.251E3,1.01E2,2.61E2,7E0,1.78E2,3.23E2,3.38E2,5.1E1,9.57E2,1.85E2,1.4E1,1.62E2,1.137E3,1.2278E4,1.989E3,1.43E2,1.806E3,7.84E2,3.62E2,4.8E1,3.06E2,5.1E1,2.73E2,9.8E1,1.7E2,9.88E2,1.042E3,8.39E2,9.7E1,5.8E1,1.06E2,1E1,2E0,1.462E3,4.9E1,3E0,1E0,6E0,4.8E1,1.5E1,1.1E1,8E0,8E0,3.6E1,3E0,1.2E1,3E0,8E0,3E0,1.41E2,1E0,4E0,6E0,7.9E1,4.82E2,1.854E3,2.28E2,3.75E2,2E1,4E1,2.3E1,2E1,2E1,3.4E1,1.7E2,3E0,3E0,8.7E1,4E0,3.54E2,1.16E2,1.02E2,6.7E2,5.4E2,2.36E2,3.34E2,2.4E1,1.76E3,2.362E3,1.806E3,8.218E3,1.109E3,5E1,6.23E2,3.13E2,3.84E2,1.84E2,8.19E2,1.27E3,7.17E2,1.6E1,1.2428E4,6.671E3,8.1E1,3.87E2,4.7E1,5.8E1,2.6E1,1.61E2,1E1,9.5E1,1.21E2,4E0,1.176E3,2.71E2,3.72E2,1.58E2,6.54E2,2.45E2,5.9E1,2.59E2,1.81E2,2.25E2,1.91E2,9.4E1,5.02E2,3.95E2,7.12E2,2.379E3,3.311E3,1.897E3,8.3E2,2.007E3,5.8E1,1.17E2,9E0,1.7E1,5.5E1,6E0,1.7E2,2.29E2,1.26E2,8.04E2],"tree_param":{"num_deleted":"0","num_feature":"44","num_nodes":"373","size_leaf_vector":"1"}}]},"name":"gbtree"},"learner_model_param":{"base_score":"3.06E1","boost_from_average":"1","num_class":"0","num_feature":"44","num_target":"1"},"objective":{"name":"reg:absoluteerror"}},"version":[2,1,1]}